digraph Tree {
node [shape=box] ;
0 [label="HuntLic <= 0.468\nmse = 5.919\nsamples = 1040\nvalue = 3.801"] ;
1 [label="Suicides <= 7.96\nmse = 6.037\nsamples = 781\nvalue = 4.357"] ;
0 -> 1 [labeldistance=2.5, labelangle=45, headlabel="True"] ;
2 [label="Suicides <= 3.04\nmse = 4.082\nsamples = 483\nvalue = 3.65"] ;
1 -> 2 ;
3 [label="HuntLic <= 0.247\nmse = 0.942\nsamples = 107\nvalue = 2.19"] ;
2 -> 3 ;
4 [label="GunsAmmo <= -1.813\nmse = 0.782\nsamples = 97\nvalue = 2.06"] ;
3 -> 4 ;
5 [label="Suicides <= 2.67\nmse = 0.868\nsamples = 8\nvalue = 3.062"] ;
4 -> 5 ;
6 [label="Suicides <= 2.225\nmse = 0.437\nsamples = 7\nvalue = 2.799"] ;
5 -> 6 ;
7 [label="Suicides <= 1.89\nmse = 0.091\nsamples = 5\nvalue = 3.178"] ;
6 -> 7 ;
8 [label="Restrictive <= 0.5\nmse = 0.01\nsamples = 2\nvalue = 2.84"] ;
7 -> 8 ;
9 [label="mse = 0.0\nsamples = 1\nvalue = 2.94"] ;
8 -> 9 ;
10 [label="mse = 0.0\nsamples = 1\nvalue = 2.74"] ;
8 -> 10 ;
11 [label="HuntLic <= 0.178\nmse = 0.018\nsamples = 3\nvalue = 3.403"] ;
7 -> 11 ;
12 [label="mse = 0.0\nsamples = 1\nvalue = 3.22"] ;
11 -> 12 ;
13 [label="Suicides <= 1.96\nmse = 0.001\nsamples = 2\nvalue = 3.495"] ;
11 -> 13 ;
14 [label="mse = 0.0\nsamples = 1\nvalue = 3.46"] ;
13 -> 14 ;
15 [label="mse = -0.0\nsamples = 1\nvalue = 3.53"] ;
13 -> 15 ;
16 [label="HuntLic <= 0.14\nmse = 0.044\nsamples = 2\nvalue = 1.85"] ;
6 -> 16 ;
17 [label="mse = 0.0\nsamples = 1\nvalue = 1.64"] ;
16 -> 17 ;
18 [label="mse = -0.0\nsamples = 1\nvalue = 2.06"] ;
16 -> 18 ;
19 [label="mse = 0.0\nsamples = 1\nvalue = 4.906"] ;
5 -> 19 ;
20 [label="HuntLic <= 0.075\nmse = 0.676\nsamples = 89\nvalue = 1.97"] ;
4 -> 20 ;
21 [label="mse = 0.0\nsamples = 1\nvalue = 4.906"] ;
20 -> 21 ;
22 [label="HuntLic <= 0.165\nmse = 0.585\nsamples = 88\nvalue = 1.937"] ;
20 -> 22 ;
23 [label="GunsAmmo <= -1.295\nmse = 0.737\nsamples = 19\nvalue = 1.319"] ;
22 -> 23 ;
24 [label="Suicides <= 2.665\nmse = 1.168\nsamples = 6\nvalue = 2.105"] ;
23 -> 24 ;
25 [label="HuntLic <= 0.165\nmse = 0.029\nsamples = 4\nvalue = 1.365"] ;
24 -> 25 ;
26 [label="HuntLic <= 0.085\nmse = 0.014\nsamples = 3\nvalue = 1.287"] ;
25 -> 26 ;
27 [label="mse = 0.0\nsamples = 1\nvalue = 1.45"] ;
26 -> 27 ;
28 [label="Suicides <= 1.93\nmse = 0.001\nsamples = 2\nvalue = 1.205"] ;
26 -> 28 ;
29 [label="mse = 0.0\nsamples = 1\nvalue = 1.18"] ;
28 -> 29 ;
30 [label="mse = -0.0\nsamples = 1\nvalue = 1.23"] ;
28 -> 30 ;
31 [label="mse = 0.0\nsamples = 1\nvalue = 1.6"] ;
25 -> 31 ;
32 [label="avg_own_est <= 0.209\nmse = 0.157\nsamples = 2\nvalue = 3.586"] ;
24 -> 32 ;
33 [label="mse = 0.0\nsamples = 1\nvalue = 3.982"] ;
32 -> 33 ;
34 [label="mse = 0.0\nsamples = 1\nvalue = 3.19"] ;
32 -> 34 ;
35 [label="GunsAmmo <= -0.682\nmse = 0.122\nsamples = 13\nvalue = 0.956"] ;
23 -> 35 ;
36 [label="HuntLic <= 0.082\nmse = 0.063\nsamples = 9\nvalue = 0.78"] ;
35 -> 36 ;
37 [label="GunsAmmo <= -1.161\nmse = 0.004\nsamples = 2\nvalue = 0.47"] ;
36 -> 37 ;
38 [label="mse = 0.0\nsamples = 1\nvalue = 0.41"] ;
37 -> 38 ;
39 [label="mse = 0.0\nsamples = 1\nvalue = 0.53"] ;
37 -> 39 ;
40 [label="Suicides <= 1.72\nmse = 0.044\nsamples = 7\nvalue = 0.869"] ;
36 -> 40 ;
41 [label="mse = 0.0\nsamples = 1\nvalue = 1.23"] ;
40 -> 41 ;
42 [label="GunsAmmo <= -1.245\nmse = 0.026\nsamples = 6\nvalue = 0.808"] ;
40 -> 42 ;
43 [label="mse = 0.0\nsamples = 1\nvalue = 1.12"] ;
42 -> 43 ;
44 [label="HuntLic <= 0.084\nmse = 0.008\nsamples = 5\nvalue = 0.746"] ;
42 -> 44 ;
45 [label="Suicides <= 1.94\nmse = 0.002\nsamples = 2\nvalue = 0.84"] ;
44 -> 45 ;
46 [label="mse = 0.0\nsamples = 1\nvalue = 0.79"] ;
45 -> 46 ;
47 [label="mse = -0.0\nsamples = 1\nvalue = 0.89"] ;
45 -> 47 ;
48 [label="Suicides <= 2.635\nmse = 0.002\nsamples = 3\nvalue = 0.683"] ;
44 -> 48 ;
49 [label="avg_own_est <= 0.263\nmse = 0.0\nsamples = 2\nvalue = 0.655"] ;
48 -> 49 ;
50 [label="mse = 0.0\nsamples = 1\nvalue = 0.65"] ;
49 -> 50 ;
51 [label="mse = 0.0\nsamples = 1\nvalue = 0.66"] ;
49 -> 51 ;
52 [label="mse = -0.0\nsamples = 1\nvalue = 0.74"] ;
48 -> 52 ;
53 [label="Suicides <= 2.395\nmse = 0.028\nsamples = 4\nvalue = 1.352"] ;
35 -> 53 ;
54 [label="HuntLic <= 0.092\nmse = 0.001\nsamples = 2\nvalue = 1.515"] ;
53 -> 54 ;
55 [label="mse = 0.0\nsamples = 1\nvalue = 1.55"] ;
54 -> 55 ;
56 [label="mse = -0.0\nsamples = 1\nvalue = 1.48"] ;
54 -> 56 ;
57 [label="Implement <= 1.5\nmse = 0.002\nsamples = 2\nvalue = 1.19"] ;
53 -> 57 ;
58 [label="mse = 0.0\nsamples = 1\nvalue = 1.15"] ;
57 -> 58 ;
59 [label="mse = 0.0\nsamples = 1\nvalue = 1.23"] ;
57 -> 59 ;
60 [label="Suicides <= 1.82\nmse = 0.409\nsamples = 69\nvalue = 2.107"] ;
22 -> 60 ;
61 [label="HuntLic <= 0.177\nmse = 0.325\nsamples = 16\nvalue = 1.672"] ;
60 -> 61 ;
62 [label="HuntLic <= 0.173\nmse = 0.505\nsamples = 3\nvalue = 2.513"] ;
61 -> 62 ;
63 [label="HuntLic <= 0.169\nmse = 0.013\nsamples = 2\nvalue = 2.015"] ;
62 -> 63 ;
64 [label="mse = 0.0\nsamples = 1\nvalue = 2.13"] ;
63 -> 64 ;
65 [label="mse = 0.0\nsamples = 1\nvalue = 1.9"] ;
63 -> 65 ;
66 [label="mse = 0.0\nsamples = 1\nvalue = 3.51"] ;
62 -> 66 ;
67 [label="HuntLic <= 0.185\nmse = 0.082\nsamples = 13\nvalue = 1.478"] ;
61 -> 67 ;
68 [label="HuntLic <= 0.179\nmse = 0.051\nsamples = 9\nvalue = 1.584"] ;
67 -> 68 ;
69 [label="HuntLic <= 0.178\nmse = 0.038\nsamples = 4\nvalue = 1.42"] ;
68 -> 69 ;
70 [label="mse = 0.0\nsamples = 1\nvalue = 1.7"] ;
69 -> 70 ;
71 [label="avg_own_est <= 0.12\nmse = 0.015\nsamples = 3\nvalue = 1.327"] ;
69 -> 71 ;
72 [label="mse = 0.0\nsamples = 1\nvalue = 1.5"] ;
71 -> 72 ;
73 [label="Suicides <= 1.72\nmse = 0.0\nsamples = 2\nvalue = 1.24"] ;
71 -> 73 ;
74 [label="mse = 0.0\nsamples = 1\nvalue = 1.26"] ;
73 -> 74 ;
75 [label="mse = 0.0\nsamples = 1\nvalue = 1.22"] ;
73 -> 75 ;
76 [label="GunsAmmo <= -1.713\nmse = 0.023\nsamples = 5\nvalue = 1.716"] ;
68 -> 76 ;
77 [label="mse = 0.0\nsamples = 1\nvalue = 1.95"] ;
76 -> 77 ;
78 [label="GunsAmmo <= -1.667\nmse = 0.012\nsamples = 4\nvalue = 1.658"] ;
76 -> 78 ;
79 [label="mse = 0.0\nsamples = 1\nvalue = 1.48"] ;
78 -> 79 ;
80 [label="Suicides <= 1.66\nmse = 0.002\nsamples = 3\nvalue = 1.717"] ;
78 -> 80 ;
81 [label="GunsAmmo <= -1.495\nmse = 0.0\nsamples = 2\nvalue = 1.685"] ;
80 -> 81 ;
82 [label="mse = 0.0\nsamples = 1\nvalue = 1.7"] ;
81 -> 82 ;
83 [label="mse = -0.0\nsamples = 1\nvalue = 1.67"] ;
81 -> 83 ;
84 [label="mse = 0.0\nsamples = 1\nvalue = 1.78"] ;
80 -> 84 ;
85 [label="Suicides <= 1.535\nmse = 0.069\nsamples = 4\nvalue = 1.24"] ;
67 -> 85 ;
86 [label="mse = 0.0\nsamples = 1\nvalue = 1.66"] ;
85 -> 86 ;
87 [label="HuntLic <= 0.186\nmse = 0.014\nsamples = 3\nvalue = 1.1"] ;
85 -> 87 ;
88 [label="mse = 0.0\nsamples = 1\nvalue = 1.26"] ;
87 -> 88 ;
89 [label="Suicides <= 1.66\nmse = 0.002\nsamples = 2\nvalue = 1.02"] ;
87 -> 89 ;
90 [label="mse = 0.0\nsamples = 1\nvalue = 1.06"] ;
89 -> 90 ;
91 [label="mse = 0.0\nsamples = 1\nvalue = 0.98"] ;
89 -> 91 ;
92 [label="Suicides <= 2.13\nmse = 0.36\nsamples = 53\nvalue = 2.238"] ;
60 -> 92 ;
93 [label="avg_own_est <= 0.143\nmse = 0.366\nsamples = 15\nvalue = 2.571"] ;
92 -> 93 ;
94 [label="avg_own_est <= 0.125\nmse = 0.218\nsamples = 7\nvalue = 2.959"] ;
93 -> 94 ;
95 [label="avg_own_est <= 0.089\nmse = 0.154\nsamples = 5\nvalue = 2.774"] ;
94 -> 95 ;
96 [label="mse = 0.0\nsamples = 1\nvalue = 3.36"] ;
95 -> 96 ;
97 [label="Suicides <= 2.065\nmse = 0.086\nsamples = 4\nvalue = 2.628"] ;
95 -> 97 ;
98 [label="Suicides <= 1.955\nmse = 0.015\nsamples = 3\nvalue = 2.47"] ;
97 -> 98 ;
99 [label="mse = 0.0\nsamples = 1\nvalue = 2.3"] ;
98 -> 99 ;
100 [label="avg_own_est <= 0.117\nmse = 0.001\nsamples = 2\nvalue = 2.555"] ;
98 -> 100 ;
101 [label="mse = 0.0\nsamples = 1\nvalue = 2.58"] ;
100 -> 101 ;
102 [label="mse = 0.0\nsamples = 1\nvalue = 2.53"] ;
100 -> 102 ;
103 [label="mse = 0.0\nsamples = 1\nvalue = 3.1"] ;
97 -> 103 ;
104 [label="avg_own_est <= 0.13\nmse = 0.078\nsamples = 2\nvalue = 3.42"] ;
94 -> 104 ;
105 [label="mse = 0.0\nsamples = 1\nvalue = 3.7"] ;
104 -> 105 ;
106 [label="mse = 0.0\nsamples = 1\nvalue = 3.14"] ;
104 -> 106 ;
107 [label="Suicides <= 2.015\nmse = 0.25\nsamples = 8\nvalue = 2.232"] ;
93 -> 107 ;
108 [label="Suicides <= 1.92\nmse = 0.077\nsamples = 4\nvalue = 1.777"] ;
107 -> 108 ;
109 [label="mse = 0.0\nsamples = 1\nvalue = 1.33"] ;
108 -> 109 ;
110 [label="GunsAmmo <= -1.667\nmse = 0.014\nsamples = 3\nvalue = 1.927"] ;
108 -> 110 ;
111 [label="HuntLic <= 0.206\nmse = 0.005\nsamples = 2\nvalue = 2.0"] ;
110 -> 111 ;
112 [label="mse = 0.0\nsamples = 1\nvalue = 1.93"] ;
111 -> 112 ;
113 [label="mse = -0.0\nsamples = 1\nvalue = 2.07"] ;
111 -> 113 ;
114 [label="mse = -0.0\nsamples = 1\nvalue = 1.78"] ;
110 -> 114 ;
115 [label="HuntLic <= 0.199\nmse = 0.01\nsamples = 4\nvalue = 2.688"] ;
107 -> 115 ;
116 [label="Suicides <= 2.06\nmse = 0.008\nsamples = 2\nvalue = 2.76"] ;
115 -> 116 ;
117 [label="mse = 0.0\nsamples = 1\nvalue = 2.67"] ;
116 -> 117 ;
118 [label="mse = 0.0\nsamples = 1\nvalue = 2.85"] ;
116 -> 118 ;
119 [label="Restrictive <= 1.0\nmse = 0.001\nsamples = 2\nvalue = 2.615"] ;
115 -> 119 ;
120 [label="mse = 0.0\nsamples = 1\nvalue = 2.59"] ;
119 -> 120 ;
121 [label="mse = -0.0\nsamples = 1\nvalue = 2.64"] ;
119 -> 121 ;
122 [label="GunsAmmo <= -1.494\nmse = 0.296\nsamples = 38\nvalue = 2.107"] ;
92 -> 122 ;
123 [label="background checks <= 0.5\nmse = 0.284\nsamples = 18\nvalue = 1.842"] ;
122 -> 123 ;
124 [label="Suicides <= 2.235\nmse = 0.221\nsamples = 16\nvalue = 1.947"] ;
123 -> 124 ;
125 [label="universl <= 0.5\nmse = 0.094\nsamples = 4\nvalue = 1.41"] ;
124 -> 125 ;
126 [label="HuntLic <= 0.201\nmse = 0.035\nsamples = 3\nvalue = 1.26"] ;
125 -> 126 ;
127 [label="mse = 0.0\nsamples = 1\nvalue = 1.52"] ;
126 -> 127 ;
128 [label="Suicides <= 2.18\nmse = 0.002\nsamples = 2\nvalue = 1.13"] ;
126 -> 128 ;
129 [label="mse = 0.0\nsamples = 1\nvalue = 1.09"] ;
128 -> 129 ;
130 [label="mse = 0.0\nsamples = 1\nvalue = 1.17"] ;
128 -> 130 ;
131 [label="mse = -0.0\nsamples = 1\nvalue = 1.86"] ;
125 -> 131 ;
132 [label="avg_own_est <= 0.163\nmse = 0.135\nsamples = 12\nvalue = 2.126"] ;
124 -> 132 ;
133 [label="HuntLic <= 0.168\nmse = 0.102\nsamples = 5\nvalue = 1.852"] ;
132 -> 133 ;
134 [label="mse = 0.0\nsamples = 1\nvalue = 2.36"] ;
133 -> 134 ;
135 [label="avg_own_est <= 0.151\nmse = 0.047\nsamples = 4\nvalue = 1.725"] ;
133 -> 135 ;
136 [label="HuntLic <= 0.172\nmse = 0.007\nsamples = 3\nvalue = 1.843"] ;
135 -> 136 ;
137 [label="mse = 0.0\nsamples = 1\nvalue = 1.73"] ;
136 -> 137 ;
138 [label="avg_own_est <= 0.113\nmse = 0.0\nsamples = 2\nvalue = 1.9"] ;
136 -> 138 ;
139 [label="mse = 0.0\nsamples = 1\nvalue = 1.88"] ;
138 -> 139 ;
140 [label="mse = 0.0\nsamples = 1\nvalue = 1.92"] ;
138 -> 140 ;
141 [label="mse = 0.0\nsamples = 1\nvalue = 1.37"] ;
135 -> 141 ;
142 [label="avg_own_est <= 0.19\nmse = 0.066\nsamples = 7\nvalue = 2.321"] ;
132 -> 142 ;
143 [label="avg_own_est <= 0.172\nmse = 0.011\nsamples = 3\nvalue = 2.567"] ;
142 -> 143 ;
144 [label="mse = 0.0\nsamples = 1\nvalue = 2.43"] ;
143 -> 144 ;
145 [label="Suicides <= 2.385\nmse = 0.003\nsamples = 2\nvalue = 2.635"] ;
143 -> 145 ;
146 [label="mse = 0.0\nsamples = 1\nvalue = 2.69"] ;
145 -> 146 ;
147 [label="mse = 0.0\nsamples = 1\nvalue = 2.58"] ;
145 -> 147 ;
148 [label="Suicides <= 2.385\nmse = 0.029\nsamples = 4\nvalue = 2.138"] ;
142 -> 148 ;
149 [label="universl <= 0.5\nmse = 0.0\nsamples = 2\nvalue = 1.98"] ;
148 -> 149 ;
150 [label="mse = 0.0\nsamples = 1\nvalue = 1.96"] ;
149 -> 150 ;
151 [label="mse = 0.0\nsamples = 1\nvalue = 2.0"] ;
149 -> 151 ;
152 [label="Suicides <= 2.43\nmse = 0.007\nsamples = 2\nvalue = 2.295"] ;
148 -> 152 ;
153 [label="mse = 0.0\nsamples = 1\nvalue = 2.38"] ;
152 -> 153 ;
154 [label="mse = 0.0\nsamples = 1\nvalue = 2.21"] ;
152 -> 154 ;
155 [label="minimum age <= 1.0\nmse = 0.001\nsamples = 2\nvalue = 1.005"] ;
123 -> 155 ;
156 [label="mse = 0.0\nsamples = 1\nvalue = 0.98"] ;
155 -> 156 ;
157 [label="mse = 0.0\nsamples = 1\nvalue = 1.03"] ;
155 -> 157 ;
158 [label="Suicides <= 2.315\nmse = 0.188\nsamples = 20\nvalue = 2.344"] ;
122 -> 158 ;
159 [label="GunsAmmo <= -1.342\nmse = 0.004\nsamples = 4\nvalue = 2.738"] ;
158 -> 159 ;
160 [label="avg_own_est <= 0.199\nmse = 0.001\nsamples = 3\nvalue = 2.703"] ;
159 -> 160 ;
161 [label="Suicides <= 2.255\nmse = 0.0\nsamples = 2\nvalue = 2.72"] ;
160 -> 161 ;
162 [label="mse = 0.0\nsamples = 1\nvalue = 2.73"] ;
161 -> 162 ;
163 [label="mse = 0.0\nsamples = 1\nvalue = 2.71"] ;
161 -> 163 ;
164 [label="mse = -0.0\nsamples = 1\nvalue = 2.67"] ;
160 -> 164 ;
165 [label="mse = 0.0\nsamples = 1\nvalue = 2.84"] ;
159 -> 165 ;
166 [label="Suicides <= 2.835\nmse = 0.186\nsamples = 16\nvalue = 2.246"] ;
158 -> 166 ;
167 [label="Suicides <= 2.725\nmse = 0.15\nsamples = 10\nvalue = 2.092"] ;
166 -> 167 ;
168 [label="Suicides <= 2.45\nmse = 0.1\nsamples = 7\nvalue = 2.276"] ;
167 -> 168 ;
169 [label="HuntLic <= 0.2\nmse = 0.031\nsamples = 2\nvalue = 1.895"] ;
168 -> 169 ;
170 [label="mse = 0.0\nsamples = 1\nvalue = 1.72"] ;
169 -> 170 ;
171 [label="mse = -0.0\nsamples = 1\nvalue = 2.07"] ;
169 -> 171 ;
172 [label="avg_own_est <= 0.178\nmse = 0.047\nsamples = 5\nvalue = 2.428"] ;
168 -> 172 ;
173 [label="mse = 0.0\nsamples = 1\nvalue = 2.83"] ;
172 -> 173 ;
174 [label="universl <= 0.5\nmse = 0.009\nsamples = 4\nvalue = 2.328"] ;
172 -> 174 ;
175 [label="Suicides <= 2.565\nmse = 0.006\nsamples = 2\nvalue = 2.255"] ;
174 -> 175 ;
176 [label="mse = 0.0\nsamples = 1\nvalue = 2.33"] ;
175 -> 176 ;
177 [label="mse = 0.0\nsamples = 1\nvalue = 2.18"] ;
175 -> 177 ;
178 [label="HuntLic <= 0.185\nmse = 0.001\nsamples = 2\nvalue = 2.4"] ;
174 -> 178 ;
179 [label="mse = 0.0\nsamples = 1\nvalue = 2.37"] ;
178 -> 179 ;
180 [label="mse = -0.0\nsamples = 1\nvalue = 2.43"] ;
178 -> 180 ;
181 [label="universl <= 0.5\nmse = 0.004\nsamples = 3\nvalue = 1.663"] ;
167 -> 181 ;
182 [label="mse = 0.0\nsamples = 1\nvalue = 1.75"] ;
181 -> 182 ;
183 [label="Implement <= 0.5\nmse = 0.0\nsamples = 2\nvalue = 1.62"] ;
181 -> 183 ;
184 [label="mse = 0.0\nsamples = 1\nvalue = 1.6"] ;
183 -> 184 ;
185 [label="mse = -0.0\nsamples = 1\nvalue = 1.64"] ;
183 -> 185 ;
186 [label="HuntLic <= 0.188\nmse = 0.139\nsamples = 6\nvalue = 2.503"] ;
166 -> 186 ;
187 [label="GunsAmmo <= -0.89\nmse = 0.017\nsamples = 3\nvalue = 2.813"] ;
186 -> 187 ;
188 [label="HuntLic <= 0.184\nmse = 0.0\nsamples = 2\nvalue = 2.905"] ;
187 -> 188 ;
189 [label="mse = 0.0\nsamples = 1\nvalue = 2.91"] ;
188 -> 189 ;
190 [label="mse = 0.0\nsamples = 1\nvalue = 2.9"] ;
188 -> 190 ;
191 [label="mse = -0.0\nsamples = 1\nvalue = 2.63"] ;
187 -> 191 ;
192 [label="avg_own_est <= 0.234\nmse = 0.068\nsamples = 3\nvalue = 2.193"] ;
186 -> 192 ;
193 [label="HuntLic <= 0.194\nmse = 0.002\nsamples = 2\nvalue = 2.01"] ;
192 -> 193 ;
194 [label="mse = 0.0\nsamples = 1\nvalue = 2.05"] ;
193 -> 194 ;
195 [label="mse = 0.0\nsamples = 1\nvalue = 1.97"] ;
193 -> 195 ;
196 [label="mse = -0.0\nsamples = 1\nvalue = 2.56"] ;
192 -> 196 ;
197 [label="Suicides <= 2.735\nmse = 0.757\nsamples = 10\nvalue = 3.446"] ;
3 -> 197 ;
198 [label="prohibited possessor <= 1.0\nmse = 0.31\nsamples = 9\nvalue = 3.216"] ;
197 -> 198 ;
199 [label="avg_own_est <= 0.23\nmse = 0.075\nsamples = 8\nvalue = 3.041"] ;
198 -> 199 ;
200 [label="GunsAmmo <= -1.309\nmse = 0.021\nsamples = 7\nvalue = 2.951"] ;
199 -> 200 ;
201 [label="HuntLic <= 0.295\nmse = 0.009\nsamples = 6\nvalue = 2.998"] ;
200 -> 201 ;
202 [label="avg_own_est <= 0.195\nmse = 0.006\nsamples = 4\nvalue = 2.952"] ;
201 -> 202 ;
203 [label="Implement <= 0.5\nmse = 0.002\nsamples = 3\nvalue = 2.993"] ;
202 -> 203 ;
204 [label="mse = 0.0\nsamples = 1\nvalue = 3.05"] ;
203 -> 204 ;
205 [label="avg_own_est <= 0.181\nmse = 0.0\nsamples = 2\nvalue = 2.965"] ;
203 -> 205 ;
206 [label="mse = 0.0\nsamples = 1\nvalue = 2.97"] ;
205 -> 206 ;
207 [label="mse = 0.0\nsamples = 1\nvalue = 2.96"] ;
205 -> 207 ;
208 [label="mse = 0.0\nsamples = 1\nvalue = 2.83"] ;
202 -> 208 ;
209 [label="Implement <= 2.0\nmse = 0.002\nsamples = 2\nvalue = 3.09"] ;
201 -> 209 ;
210 [label="mse = 0.0\nsamples = 1\nvalue = 3.04"] ;
209 -> 210 ;
211 [label="mse = 0.0\nsamples = 1\nvalue = 3.14"] ;
209 -> 211 ;
212 [label="mse = 0.0\nsamples = 1\nvalue = 2.67"] ;
200 -> 212 ;
213 [label="mse = -0.0\nsamples = 1\nvalue = 3.67"] ;
199 -> 213 ;
214 [label="mse = 0.0\nsamples = 1\nvalue = 4.61"] ;
198 -> 214 ;
215 [label="mse = -0.0\nsamples = 1\nvalue = 5.52"] ;
197 -> 215 ;
216 [label="GunsAmmo <= -0.315\nmse = 4.196\nsamples = 376\nvalue = 4.066"] ;
2 -> 216 ;
217 [label="HuntLic <= 0.348\nmse = 3.84\nsamples = 181\nvalue = 4.954"] ;
216 -> 217 ;
218 [label="GunsAmmo <= -1.359\nmse = 3.435\nsamples = 175\nvalue = 4.826"] ;
217 -> 218 ;
219 [label="Suicides <= 3.69\nmse = 0.944\nsamples = 10\nvalue = 2.452"] ;
218 -> 219 ;
220 [label="Implement <= 0.5\nmse = 0.161\nsamples = 5\nvalue = 1.528"] ;
219 -> 220 ;
221 [label="Suicides <= 3.57\nmse = 0.065\nsamples = 4\nvalue = 1.362"] ;
220 -> 221 ;
222 [label="GunsAmmo <= -1.534\nmse = 0.024\nsamples = 3\nvalue = 1.487"] ;
221 -> 222 ;
223 [label="GunsAmmo <= -1.64\nmse = 0.006\nsamples = 2\nvalue = 1.385"] ;
222 -> 223 ;
224 [label="mse = 0.0\nsamples = 1\nvalue = 1.46"] ;
223 -> 224 ;
225 [label="mse = -0.0\nsamples = 1\nvalue = 1.31"] ;
223 -> 225 ;
226 [label="mse = 0.0\nsamples = 1\nvalue = 1.69"] ;
222 -> 226 ;
227 [label="mse = -0.0\nsamples = 1\nvalue = 0.99"] ;
221 -> 227 ;
228 [label="mse = 0.0\nsamples = 1\nvalue = 2.19"] ;
220 -> 228 ;
229 [label="Implement <= 2.5\nmse = 0.019\nsamples = 5\nvalue = 3.376"] ;
219 -> 229 ;
230 [label="HuntLic <= 0.146\nmse = 0.006\nsamples = 4\nvalue = 3.435"] ;
229 -> 230 ;
231 [label="mse = 0.0\nsamples = 1\nvalue = 3.52"] ;
230 -> 231 ;
232 [label="background checks <= 0.5\nmse = 0.004\nsamples = 3\nvalue = 3.407"] ;
230 -> 232 ;
233 [label="Restrictive <= 1.5\nmse = 0.0\nsamples = 2\nvalue = 3.36"] ;
232 -> 233 ;
234 [label="mse = 0.0\nsamples = 1\nvalue = 3.37"] ;
233 -> 234 ;
235 [label="mse = -0.0\nsamples = 1\nvalue = 3.35"] ;
233 -> 235 ;
236 [label="mse = 0.0\nsamples = 1\nvalue = 3.5"] ;
232 -> 236 ;
237 [label="mse = -0.0\nsamples = 1\nvalue = 3.14"] ;
229 -> 237 ;
238 [label="universl <= 0.5\nmse = 3.223\nsamples = 165\nvalue = 4.97"] ;
218 -> 238 ;
239 [label="Suicides <= 4.37\nmse = 2.578\nsamples = 120\nvalue = 4.665"] ;
238 -> 239 ;
240 [label="HuntLic <= 0.327\nmse = 1.421\nsamples = 17\nvalue = 5.633"] ;
239 -> 240 ;
241 [label="Suicides <= 3.4\nmse = 0.72\nsamples = 15\nvalue = 5.315"] ;
240 -> 241 ;
242 [label="GunsAmmo <= -0.91\nmse = 0.119\nsamples = 6\nvalue = 4.775"] ;
241 -> 242 ;
243 [label="mse = 0.0\nsamples = 1\nvalue = 5.42"] ;
242 -> 243 ;
244 [label="prohibited possessor <= 0.5\nmse = 0.043\nsamples = 5\nvalue = 4.646"] ;
242 -> 244 ;
245 [label="HuntLic <= 0.294\nmse = 0.0\nsamples = 3\nvalue = 4.477"] ;
244 -> 245 ;
246 [label="mse = 0.0\nsamples = 1\nvalue = 4.45"] ;
245 -> 246 ;
247 [label="Suicides <= 3.195\nmse = 0.0\nsamples = 2\nvalue = 4.49"] ;
245 -> 247 ;
248 [label="mse = 0.0\nsamples = 1\nvalue = 4.48"] ;
247 -> 248 ;
249 [label="mse = 0.0\nsamples = 1\nvalue = 4.5"] ;
247 -> 249 ;
250 [label="mse = -0.0\nsamples = 2\nvalue = 4.9"] ;
244 -> 250 ;
251 [label="prohibited possessor <= 0.5\nmse = 0.797\nsamples = 9\nvalue = 5.674"] ;
241 -> 251 ;
252 [label="Suicides <= 3.46\nmse = 0.555\nsamples = 7\nvalue = 5.371"] ;
251 -> 252 ;
253 [label="mse = 0.0\nsamples = 1\nvalue = 6.71"] ;
252 -> 253 ;
254 [label="Suicides <= 4.2\nmse = 0.299\nsamples = 6\nvalue = 5.148"] ;
252 -> 254 ;
255 [label="HuntLic <= 0.308\nmse = 0.138\nsamples = 5\nvalue = 5.34"] ;
254 -> 255 ;
256 [label="avg_own_est <= 0.279\nmse = 0.051\nsamples = 3\nvalue = 5.603"] ;
255 -> 256 ;
257 [label="avg_own_est <= 0.218\nmse = 0.007\nsamples = 2\nvalue = 5.755"] ;
256 -> 257 ;
258 [label="mse = 0.0\nsamples = 1\nvalue = 5.84"] ;
257 -> 258 ;
259 [label="mse = 0.0\nsamples = 1\nvalue = 5.67"] ;
257 -> 259 ;
260 [label="mse = -0.0\nsamples = 1\nvalue = 5.3"] ;
256 -> 260 ;
261 [label="HuntLic <= 0.321\nmse = 0.009\nsamples = 2\nvalue = 4.945"] ;
255 -> 261 ;
262 [label="mse = 0.0\nsamples = 1\nvalue = 4.85"] ;
261 -> 262 ;
263 [label="mse = -0.0\nsamples = 1\nvalue = 5.04"] ;
261 -> 263 ;
264 [label="mse = 0.0\nsamples = 1\nvalue = 4.19"] ;
254 -> 264 ;
265 [label="Modify <= 0.5\nmse = 0.198\nsamples = 2\nvalue = 6.735"] ;
251 -> 265 ;
266 [label="mse = 0.0\nsamples = 1\nvalue = 7.18"] ;
265 -> 266 ;
267 [label="mse = 0.0\nsamples = 1\nvalue = 6.29"] ;
265 -> 267 ;
268 [label="GunsAmmo <= -0.711\nmse = 0.221\nsamples = 2\nvalue = 8.02"] ;
240 -> 268 ;
269 [label="mse = 0.0\nsamples = 1\nvalue = 8.49"] ;
268 -> 269 ;
270 [label="mse = 0.0\nsamples = 1\nvalue = 7.55"] ;
268 -> 270 ;
271 [label="Suicides <= 6.995\nmse = 2.589\nsamples = 103\nvalue = 4.505"] ;
239 -> 271 ;
272 [label="permit <= 0.5\nmse = 3.033\nsamples = 59\nvalue = 4.088"] ;
271 -> 272 ;
273 [label="Suicides <= 5.16\nmse = 2.717\nsamples = 55\nvalue = 3.942"] ;
272 -> 273 ;
274 [label="Suicides <= 5.025\nmse = 1.296\nsamples = 10\nvalue = 2.943"] ;
273 -> 274 ;
275 [label="Suicides <= 4.555\nmse = 1.031\nsamples = 7\nvalue = 3.406"] ;
274 -> 275 ;
276 [label="Restrictive <= 0.5\nmse = 0.01\nsamples = 2\nvalue = 2.05"] ;
275 -> 276 ;
277 [label="mse = 0.0\nsamples = 1\nvalue = 2.15"] ;
276 -> 277 ;
278 [label="mse = 0.0\nsamples = 1\nvalue = 1.95"] ;
276 -> 278 ;
279 [label="HuntLic <= 0.211\nmse = 0.41\nsamples = 5\nvalue = 3.948"] ;
275 -> 279 ;
280 [label="HuntLic <= 0.173\nmse = 0.083\nsamples = 4\nvalue = 3.655"] ;
279 -> 280 ;
281 [label="mse = 0.0\nsamples = 1\nvalue = 4.15"] ;
280 -> 281 ;
282 [label="prohibited possessor <= 0.5\nmse = 0.002\nsamples = 3\nvalue = 3.49"] ;
280 -> 282 ;
283 [label="HuntLic <= 0.204\nmse = 0.0\nsamples = 2\nvalue = 3.46"] ;
282 -> 283 ;
284 [label="mse = 0.0\nsamples = 1\nvalue = 3.44"] ;
283 -> 284 ;
285 [label="mse = 0.0\nsamples = 1\nvalue = 3.48"] ;
283 -> 285 ;
286 [label="mse = -0.0\nsamples = 1\nvalue = 3.55"] ;
282 -> 286 ;
287 [label="mse = -0.0\nsamples = 1\nvalue = 5.12"] ;
279 -> 287 ;
288 [label="Suicides <= 5.11\nmse = 0.248\nsamples = 3\nvalue = 1.863"] ;
274 -> 288 ;
289 [label="Suicides <= 5.075\nmse = 0.001\nsamples = 2\nvalue = 2.215"] ;
288 -> 289 ;
290 [label="mse = 0.0\nsamples = 1\nvalue = 2.18"] ;
289 -> 290 ;
291 [label="mse = 0.0\nsamples = 1\nvalue = 2.25"] ;
289 -> 291 ;
292 [label="mse = -0.0\nsamples = 1\nvalue = 1.16"] ;
288 -> 292 ;
293 [label="Suicides <= 5.545\nmse = 2.761\nsamples = 45\nvalue = 4.164"] ;
273 -> 293 ;
294 [label="GunsAmmo <= -0.53\nmse = 8.837\nsamples = 7\nvalue = 6.276"] ;
293 -> 294 ;
295 [label="HuntLic <= 0.199\nmse = 5.205\nsamples = 5\nvalue = 7.706"] ;
294 -> 295 ;
296 [label="mse = 0.0\nsamples = 1\nvalue = 3.22"] ;
295 -> 296 ;
297 [label="HuntLic <= 0.208\nmse = 0.218\nsamples = 4\nvalue = 8.828"] ;
295 -> 297 ;
298 [label="GunsAmmo <= -0.588\nmse = 0.035\nsamples = 3\nvalue = 9.08"] ;
297 -> 298 ;
299 [label="GunsAmmo <= -0.641\nmse = 0.013\nsamples = 2\nvalue = 9.195"] ;
298 -> 299 ;
300 [label="mse = 0.0\nsamples = 1\nvalue = 9.08"] ;
299 -> 300 ;
301 [label="mse = 0.0\nsamples = 1\nvalue = 9.31"] ;
299 -> 301 ;
302 [label="mse = -0.0\nsamples = 1\nvalue = 8.85"] ;
298 -> 302 ;
303 [label="mse = 0.0\nsamples = 1\nvalue = 8.07"] ;
297 -> 303 ;
304 [label="GunsAmmo <= -0.453\nmse = 0.017\nsamples = 2\nvalue = 2.7"] ;
294 -> 304 ;
305 [label="mse = 0.0\nsamples = 1\nvalue = 2.83"] ;
304 -> 305 ;
306 [label="mse = -0.0\nsamples = 1\nvalue = 2.57"] ;
304 -> 306 ;
307 [label="Implement <= 0.5\nmse = 0.669\nsamples = 38\nvalue = 3.775"] ;
293 -> 307 ;
308 [label="HuntLic <= 0.132\nmse = 0.419\nsamples = 32\nvalue = 3.969"] ;
307 -> 308 ;
309 [label="HuntLic <= 0.127\nmse = 0.135\nsamples = 6\nvalue = 4.712"] ;
308 -> 309 ;
310 [label="HuntLic <= 0.123\nmse = 0.023\nsamples = 2\nvalue = 5.2"] ;
309 -> 310 ;
311 [label="mse = 0.0\nsamples = 1\nvalue = 5.05"] ;
310 -> 311 ;
312 [label="mse = 0.0\nsamples = 1\nvalue = 5.35"] ;
310 -> 312 ;
313 [label="HuntLic <= 0.128\nmse = 0.013\nsamples = 4\nvalue = 4.468"] ;
309 -> 313 ;
314 [label="mse = 0.0\nsamples = 1\nvalue = 4.31"] ;
313 -> 314 ;
315 [label="GunsAmmo <= -0.706\nmse = 0.006\nsamples = 3\nvalue = 4.52"] ;
313 -> 315 ;
316 [label="avg_own_est <= 0.309\nmse = 0.002\nsamples = 2\nvalue = 4.57"] ;
315 -> 316 ;
317 [label="mse = 0.0\nsamples = 1\nvalue = 4.61"] ;
316 -> 317 ;
318 [label="mse = 0.0\nsamples = 1\nvalue = 4.53"] ;
316 -> 318 ;
319 [label="mse = -0.0\nsamples = 1\nvalue = 4.42"] ;
315 -> 319 ;
320 [label="HuntLic <= 0.337\nmse = 0.328\nsamples = 26\nvalue = 3.798"] ;
308 -> 320 ;
321 [label="background checks <= 0.5\nmse = 0.236\nsamples = 25\nvalue = 3.734"] ;
320 -> 321 ;
322 [label="GunsAmmo <= -0.559\nmse = 0.198\nsamples = 24\nvalue = 3.691"] ;
321 -> 322 ;
323 [label="GunsAmmo <= -1.121\nmse = 0.274\nsamples = 9\nvalue = 3.462"] ;
322 -> 323 ;
324 [label="avg_own_est <= 0.275\nmse = 0.02\nsamples = 3\nvalue = 3.937"] ;
323 -> 324 ;
325 [label="GunsAmmo <= -1.145\nmse = 0.001\nsamples = 2\nvalue = 4.035"] ;
324 -> 325 ;
326 [label="mse = 0.0\nsamples = 1\nvalue = 4.0"] ;
325 -> 326 ;
327 [label="mse = 0.0\nsamples = 1\nvalue = 4.07"] ;
325 -> 327 ;
328 [label="mse = -0.0\nsamples = 1\nvalue = 3.74"] ;
324 -> 328 ;
329 [label="avg_own_est <= 0.303\nmse = 0.232\nsamples = 6\nvalue = 3.225"] ;
323 -> 329 ;
330 [label="mse = 0.0\nsamples = 1\nvalue = 2.37"] ;
329 -> 330 ;
331 [label="Suicides <= 6.06\nmse = 0.103\nsamples = 5\nvalue = 3.396"] ;
329 -> 331 ;
332 [label="mse = 0.0\nsamples = 1\nvalue = 2.97"] ;
331 -> 332 ;
333 [label="GunsAmmo <= -0.988\nmse = 0.072\nsamples = 4\nvalue = 3.503"] ;
331 -> 333 ;
334 [label="mse = 0.0\nsamples = 1\nvalue = 3.05"] ;
333 -> 334 ;
335 [label="Suicides <= 6.625\nmse = 0.005\nsamples = 3\nvalue = 3.653"] ;
333 -> 335 ;
336 [label="mse = 0.0\nsamples = 1\nvalue = 3.74"] ;
335 -> 336 ;
337 [label="Suicides <= 6.855\nmse = 0.002\nsamples = 2\nvalue = 3.61"] ;
335 -> 337 ;
338 [label="mse = 0.0\nsamples = 1\nvalue = 3.65"] ;
337 -> 338 ;
339 [label="mse = 0.0\nsamples = 1\nvalue = 3.57"] ;
337 -> 339 ;
340 [label="Suicides <= 6.65\nmse = 0.103\nsamples = 15\nvalue = 3.828"] ;
322 -> 340 ;
341 [label="avg_own_est <= 0.442\nmse = 0.037\nsamples = 8\nvalue = 4.029"] ;
340 -> 341 ;
342 [label="Suicides <= 6.185\nmse = 0.021\nsamples = 6\nvalue = 4.11"] ;
341 -> 342 ;
343 [label="HuntLic <= 0.234\nmse = 0.001\nsamples = 2\nvalue = 4.25"] ;
342 -> 343 ;
344 [label="mse = 0.0\nsamples = 1\nvalue = 4.28"] ;
343 -> 344 ;
345 [label="mse = 0.0\nsamples = 1\nvalue = 4.22"] ;
343 -> 345 ;
346 [label="GunsAmmo <= -0.458\nmse = 0.017\nsamples = 4\nvalue = 4.04"] ;
342 -> 346 ;
347 [label="avg_own_est <= 0.375\nmse = 0.001\nsamples = 3\nvalue = 3.967"] ;
346 -> 347 ;
348 [label="HuntLic <= 0.237\nmse = 0.0\nsamples = 2\nvalue = 3.985"] ;
347 -> 348 ;
349 [label="mse = 0.0\nsamples = 1\nvalue = 3.99"] ;
348 -> 349 ;
350 [label="mse = -0.0\nsamples = 1\nvalue = 3.98"] ;
348 -> 350 ;
351 [label="mse = 0.0\nsamples = 1\nvalue = 3.93"] ;
347 -> 351 ;
352 [label="mse = -0.0\nsamples = 1\nvalue = 4.26"] ;
346 -> 352 ;
353 [label="avg_own_est <= 0.453\nmse = 0.006\nsamples = 2\nvalue = 3.785"] ;
341 -> 353 ;
354 [label="mse = 0.0\nsamples = 1\nvalue = 3.71"] ;
353 -> 354 ;
355 [label="mse = -0.0\nsamples = 1\nvalue = 3.86"] ;
353 -> 355 ;
356 [label="HuntLic <= 0.236\nmse = 0.079\nsamples = 7\nvalue = 3.599"] ;
340 -> 356 ;
357 [label="HuntLic <= 0.232\nmse = 0.027\nsamples = 4\nvalue = 3.38"] ;
356 -> 357 ;
358 [label="GunsAmmo <= -0.434\nmse = 0.005\nsamples = 3\nvalue = 3.467"] ;
357 -> 358 ;
359 [label="mse = 0.0\nsamples = 1\nvalue = 3.57"] ;
358 -> 359 ;
360 [label="Suicides <= 6.83\nmse = 0.0\nsamples = 2\nvalue = 3.415"] ;
358 -> 360 ;
361 [label="mse = 0.0\nsamples = 1\nvalue = 3.43"] ;
360 -> 361 ;
362 [label="mse = 0.0\nsamples = 1\nvalue = 3.4"] ;
360 -> 362 ;
363 [label="mse = -0.0\nsamples = 1\nvalue = 3.12"] ;
357 -> 363 ;
364 [label="avg_own_est <= 0.355\nmse = 0.0\nsamples = 3\nvalue = 3.89"] ;
356 -> 364 ;
365 [label="mse = 0.0\nsamples = 1\nvalue = 3.86"] ;
364 -> 365 ;
366 [label="avg_own_est <= 0.395\nmse = 0.0\nsamples = 2\nvalue = 3.905"] ;
364 -> 366 ;
367 [label="mse = 0.0\nsamples = 1\nvalue = 3.91"] ;
366 -> 367 ;
368 [label="mse = -0.0\nsamples = 1\nvalue = 3.9"] ;
366 -> 368 ;
369 [label="mse = -0.0\nsamples = 1\nvalue = 4.78"] ;
321 -> 369 ;
370 [label="mse = 0.0\nsamples = 1\nvalue = 5.39"] ;
320 -> 370 ;
371 [label="Suicides <= 6.095\nmse = 0.723\nsamples = 6\nvalue = 2.737"] ;
307 -> 371 ;
372 [label="Suicides <= 5.84\nmse = 0.129\nsamples = 3\nvalue = 2.083"] ;
371 -> 372 ;
373 [label="prohibited possessor <= 1.0\nmse = 0.003\nsamples = 2\nvalue = 2.335"] ;
372 -> 373 ;
374 [label="mse = 0.0\nsamples = 1\nvalue = 2.39"] ;
373 -> 374 ;
375 [label="mse = -0.0\nsamples = 1\nvalue = 2.28"] ;
373 -> 375 ;
376 [label="mse = 0.0\nsamples = 1\nvalue = 1.58"] ;
372 -> 376 ;
377 [label="avg_own_est <= 0.442\nmse = 0.463\nsamples = 3\nvalue = 3.39"] ;
371 -> 377 ;
378 [label="GunsAmmo <= -0.553\nmse = 0.032\nsamples = 2\nvalue = 3.86"] ;
377 -> 378 ;
379 [label="mse = 0.0\nsamples = 1\nvalue = 3.68"] ;
378 -> 379 ;
380 [label="mse = -0.0\nsamples = 1\nvalue = 4.04"] ;
378 -> 380 ;
381 [label="mse = 0.0\nsamples = 1\nvalue = 2.45"] ;
377 -> 381 ;
382 [label="avg_own_est <= 0.368\nmse = 3.056\nsamples = 4\nvalue = 6.098"] ;
272 -> 382 ;
383 [label="HuntLic <= 0.275\nmse = 0.004\nsamples = 2\nvalue = 7.845"] ;
382 -> 383 ;
384 [label="mse = 0.0\nsamples = 1\nvalue = 7.91"] ;
383 -> 384 ;
385 [label="mse = -0.0\nsamples = 1\nvalue = 7.78"] ;
383 -> 385 ;
386 [label="GunsAmmo <= -0.452\nmse = 0.0\nsamples = 2\nvalue = 4.35"] ;
382 -> 386 ;
387 [label="mse = 0.0\nsamples = 1\nvalue = 4.36"] ;
386 -> 387 ;
388 [label="mse = 0.0\nsamples = 1\nvalue = 4.34"] ;
386 -> 388 ;
389 [label="GunsAmmo <= -0.353\nmse = 1.447\nsamples = 44\nvalue = 5.064"] ;
271 -> 389 ;
390 [label="avg_own_est <= 0.474\nmse = 0.991\nsamples = 43\nvalue = 4.958"] ;
389 -> 390 ;
391 [label="GunsAmmo <= -0.587\nmse = 0.343\nsamples = 37\nvalue = 4.812"] ;
390 -> 391 ;
392 [label="HuntLic <= 0.329\nmse = 0.312\nsamples = 24\nvalue = 5.019"] ;
391 -> 392 ;
393 [label="avg_own_est <= 0.374\nmse = 0.26\nsamples = 21\nvalue = 5.122"] ;
392 -> 393 ;
394 [label="HuntLic <= 0.131\nmse = 0.166\nsamples = 5\nvalue = 4.596"] ;
393 -> 394 ;
395 [label="mse = 0.0\nsamples = 1\nvalue = 5.29"] ;
394 -> 395 ;
396 [label="HuntLic <= 0.179\nmse = 0.057\nsamples = 4\nvalue = 4.422"] ;
394 -> 396 ;
397 [label="GunsAmmo <= -0.692\nmse = 0.008\nsamples = 3\nvalue = 4.553"] ;
396 -> 397 ;
398 [label="prohibited possessor <= 0.5\nmse = 0.003\nsamples = 2\nvalue = 4.61"] ;
397 -> 398 ;
399 [label="mse = 0.0\nsamples = 1\nvalue = 4.66"] ;
398 -> 399 ;
400 [label="mse = 0.0\nsamples = 1\nvalue = 4.56"] ;
398 -> 400 ;
401 [label="mse = -0.0\nsamples = 1\nvalue = 4.44"] ;
397 -> 401 ;
402 [label="mse = -0.0\nsamples = 1\nvalue = 4.03"] ;
396 -> 402 ;
403 [label="Suicides <= 7.095\nmse = 0.176\nsamples = 16\nvalue = 5.287"] ;
393 -> 403 ;
404 [label="Suicides <= 7.045\nmse = 0.044\nsamples = 2\nvalue = 6.04"] ;
403 -> 404 ;
405 [label="mse = 0.0\nsamples = 1\nvalue = 6.25"] ;
404 -> 405 ;
406 [label="mse = 0.0\nsamples = 1\nvalue = 5.83"] ;
404 -> 406 ;
407 [label="GunsAmmo <= -0.721\nmse = 0.102\nsamples = 14\nvalue = 5.179"] ;
403 -> 407 ;
408 [label="Suicides <= 7.48\nmse = 0.049\nsamples = 8\nvalue = 4.961"] ;
407 -> 408 ;
409 [label="HuntLic <= 0.311\nmse = 0.007\nsamples = 3\nvalue = 4.697"] ;
408 -> 409 ;
410 [label="HuntLic <= 0.3\nmse = 0.0\nsamples = 2\nvalue = 4.755"] ;
409 -> 410 ;
411 [label="mse = 0.0\nsamples = 1\nvalue = 4.75"] ;
410 -> 411 ;
412 [label="mse = 0.0\nsamples = 1\nvalue = 4.76"] ;
410 -> 412 ;
413 [label="mse = -0.0\nsamples = 1\nvalue = 4.58"] ;
409 -> 413 ;
414 [label="avg_own_est <= 0.403\nmse = 0.007\nsamples = 5\nvalue = 5.12"] ;
408 -> 414 ;
415 [label="mse = 0.0\nsamples = 1\nvalue = 4.98"] ;
414 -> 415 ;
416 [label="GunsAmmo <= -0.735\nmse = 0.002\nsamples = 4\nvalue = 5.155"] ;
414 -> 416 ;
417 [label="HuntLic <= 0.314\nmse = 0.0\nsamples = 3\nvalue = 5.13"] ;
416 -> 417 ;
418 [label="mse = 0.0\nsamples = 1\nvalue = 5.16"] ;
417 -> 418 ;
419 [label="HuntLic <= 0.32\nmse = 0.0\nsamples = 2\nvalue = 5.115"] ;
417 -> 419 ;
420 [label="mse = 0.0\nsamples = 1\nvalue = 5.11"] ;
419 -> 420 ;
421 [label="mse = 0.0\nsamples = 1\nvalue = 5.12"] ;
419 -> 421 ;
422 [label="mse = 0.0\nsamples = 1\nvalue = 5.23"] ;
416 -> 422 ;
423 [label="Suicides <= 7.875\nmse = 0.025\nsamples = 6\nvalue = 5.47"] ;
407 -> 423 ;
424 [label="Suicides <= 7.475\nmse = 0.014\nsamples = 5\nvalue = 5.418"] ;
423 -> 424 ;
425 [label="Suicides <= 7.33\nmse = 0.001\nsamples = 3\nvalue = 5.51"] ;
424 -> 425 ;
426 [label="mse = -0.0\nsamples = 2\nvalue = 5.53"] ;
425 -> 426 ;
427 [label="mse = 0.0\nsamples = 1\nvalue = 5.47"] ;
425 -> 427 ;
428 [label="Suicides <= 7.7\nmse = 0.002\nsamples = 2\nvalue = 5.28"] ;
424 -> 428 ;
429 [label="mse = 0.0\nsamples = 1\nvalue = 5.32"] ;
428 -> 429 ;
430 [label="mse = 0.0\nsamples = 1\nvalue = 5.24"] ;
428 -> 430 ;
431 [label="mse = -0.0\nsamples = 1\nvalue = 5.73"] ;
423 -> 431 ;
432 [label="Suicides <= 7.325\nmse = 0.079\nsamples = 3\nvalue = 4.297"] ;
392 -> 432 ;
433 [label="mse = 0.0\nsamples = 1\nvalue = 3.9"] ;
432 -> 433 ;
434 [label="avg_own_est <= 0.392\nmse = 0.001\nsamples = 2\nvalue = 4.495"] ;
432 -> 434 ;
435 [label="mse = 0.0\nsamples = 1\nvalue = 4.52"] ;
434 -> 435 ;
436 [label="mse = 0.0\nsamples = 1\nvalue = 4.47"] ;
434 -> 436 ;
437 [label="avg_own_est <= 0.372\nmse = 0.174\nsamples = 13\nvalue = 4.429"] ;
391 -> 437 ;
438 [label="HuntLic <= 0.21\nmse = 0.237\nsamples = 6\nvalue = 4.64"] ;
437 -> 438 ;
439 [label="HuntLic <= 0.185\nmse = 0.001\nsamples = 2\nvalue = 3.975"] ;
438 -> 439 ;
440 [label="mse = 0.0\nsamples = 1\nvalue = 4.0"] ;
439 -> 440 ;
441 [label="mse = -0.0\nsamples = 1\nvalue = 3.95"] ;
439 -> 441 ;
442 [label="GunsAmmo <= -0.388\nmse = 0.023\nsamples = 4\nvalue = 4.972"] ;
438 -> 442 ;
443 [label="Suicides <= 7.21\nmse = 0.009\nsamples = 3\nvalue = 5.047"] ;
442 -> 443 ;
444 [label="GunsAmmo <= -0.44\nmse = 0.003\nsamples = 2\nvalue = 5.105"] ;
443 -> 444 ;
445 [label="mse = 0.0\nsamples = 1\nvalue = 5.16"] ;
444 -> 445 ;
446 [label="mse = -0.0\nsamples = 1\nvalue = 5.05"] ;
444 -> 446 ;
447 [label="mse = -0.0\nsamples = 1\nvalue = 4.93"] ;
443 -> 447 ;
448 [label="mse = 0.0\nsamples = 1\nvalue = 4.75"] ;
442 -> 448 ;
449 [label="HuntLic <= 0.271\nmse = 0.049\nsamples = 7\nvalue = 4.249"] ;
437 -> 449 ;
450 [label="Suicides <= 7.305\nmse = 0.031\nsamples = 5\nvalue = 4.344"] ;
449 -> 450 ;
451 [label="GunsAmmo <= -0.503\nmse = 0.004\nsamples = 3\nvalue = 4.47"] ;
450 -> 451 ;
452 [label="mse = 0.0\nsamples = 1\nvalue = 4.39"] ;
451 -> 452 ;
453 [label="GunsAmmo <= -0.422\nmse = 0.001\nsamples = 2\nvalue = 4.51"] ;
451 -> 453 ;
454 [label="mse = 0.0\nsamples = 1\nvalue = 4.48"] ;
453 -> 454 ;
455 [label="mse = 0.0\nsamples = 1\nvalue = 4.54"] ;
453 -> 455 ;
456 [label="Modify <= 0.5\nmse = 0.013\nsamples = 2\nvalue = 4.155"] ;
450 -> 456 ;
457 [label="mse = 0.0\nsamples = 1\nvalue = 4.04"] ;
456 -> 457 ;
458 [label="mse = 0.0\nsamples = 1\nvalue = 4.27"] ;
456 -> 458 ;
459 [label="background checks <= 0.5\nmse = 0.014\nsamples = 2\nvalue = 4.01"] ;
449 -> 459 ;
460 [label="mse = 0.0\nsamples = 1\nvalue = 3.89"] ;
459 -> 460 ;
461 [label="mse = 0.0\nsamples = 1\nvalue = 4.13"] ;
459 -> 461 ;
462 [label="GunsAmmo <= -0.456\nmse = 4.041\nsamples = 6\nvalue = 5.862"] ;
390 -> 462 ;
463 [label="Suicides <= 7.655\nmse = 0.618\nsamples = 5\nvalue = 5.022"] ;
462 -> 463 ;
464 [label="Suicides <= 7.25\nmse = 0.451\nsamples = 3\nvalue = 4.543"] ;
463 -> 464 ;
465 [label="mse = 0.0\nsamples = 1\nvalue = 5.49"] ;
464 -> 465 ;
466 [label="Permissive <= 0.5\nmse = 0.005\nsamples = 2\nvalue = 4.07"] ;
464 -> 466 ;
467 [label="mse = 0.0\nsamples = 1\nvalue = 4.14"] ;
466 -> 467 ;
468 [label="mse = -0.0\nsamples = 1\nvalue = 4.0"] ;
466 -> 468 ;
469 [label="Suicides <= 7.87\nmse = 0.01\nsamples = 2\nvalue = 5.74"] ;
463 -> 469 ;
470 [label="mse = 0.0\nsamples = 1\nvalue = 5.64"] ;
469 -> 470 ;
471 [label="mse = -0.0\nsamples = 1\nvalue = 5.84"] ;
469 -> 471 ;
472 [label="mse = -0.0\nsamples = 1\nvalue = 10.06"] ;
462 -> 472 ;
473 [label="mse = 0.0\nsamples = 1\nvalue = 9.6"] ;
389 -> 473 ;
474 [label="HuntLic <= 0.233\nmse = 4.03\nsamples = 45\nvalue = 5.785"] ;
238 -> 474 ;
475 [label="Suicides <= 3.485\nmse = 3.435\nsamples = 39\nvalue = 5.414"] ;
474 -> 475 ;
476 [label="Suicides <= 3.24\nmse = 0.126\nsamples = 4\nvalue = 2.115"] ;
475 -> 476 ;
477 [label="GunsAmmo <= -0.835\nmse = 0.017\nsamples = 2\nvalue = 1.8"] ;
476 -> 477 ;
478 [label="mse = 0.0\nsamples = 1\nvalue = 1.93"] ;
477 -> 478 ;
479 [label="mse = 0.0\nsamples = 1\nvalue = 1.67"] ;
477 -> 479 ;
480 [label="HuntLic <= 0.2\nmse = 0.036\nsamples = 2\nvalue = 2.43"] ;
476 -> 480 ;
481 [label="mse = 0.0\nsamples = 1\nvalue = 2.24"] ;
480 -> 481 ;
482 [label="mse = 0.0\nsamples = 1\nvalue = 2.62"] ;
480 -> 482 ;
483 [label="HuntLic <= 0.158\nmse = 2.427\nsamples = 35\nvalue = 5.791"] ;
475 -> 483 ;
484 [label="Suicides <= 3.945\nmse = 0.935\nsamples = 13\nvalue = 4.69"] ;
483 -> 484 ;
485 [label="HuntLic <= 0.142\nmse = 1.638\nsamples = 2\nvalue = 6.29"] ;
484 -> 485 ;
486 [label="mse = 0.0\nsamples = 1\nvalue = 7.57"] ;
485 -> 486 ;
487 [label="mse = 0.0\nsamples = 1\nvalue = 5.01"] ;
485 -> 487 ;
488 [label="Restrictive <= 0.5\nmse = 0.257\nsamples = 11\nvalue = 4.399"] ;
484 -> 488 ;
489 [label="HuntLic <= 0.149\nmse = 0.059\nsamples = 4\nvalue = 3.843"] ;
488 -> 489 ;
490 [label="mse = 0.0\nsamples = 1\nvalue = 3.47"] ;
489 -> 490 ;
491 [label="Suicides <= 4.06\nmse = 0.017\nsamples = 3\nvalue = 3.967"] ;
489 -> 491 ;
492 [label="mse = 0.0\nsamples = 1\nvalue = 4.12"] ;
491 -> 492 ;
493 [label="Suicides <= 4.47\nmse = 0.008\nsamples = 2\nvalue = 3.89"] ;
491 -> 493 ;
494 [label="mse = 0.0\nsamples = 1\nvalue = 3.8"] ;
493 -> 494 ;
495 [label="mse = 0.0\nsamples = 1\nvalue = 3.98"] ;
493 -> 495 ;
496 [label="HuntLic <= 0.157\nmse = 0.092\nsamples = 7\nvalue = 4.717"] ;
488 -> 496 ;
497 [label="GunsAmmo <= -1.144\nmse = 0.03\nsamples = 5\nvalue = 4.882"] ;
496 -> 497 ;
498 [label="GunsAmmo <= -1.265\nmse = 0.01\nsamples = 2\nvalue = 5.05"] ;
497 -> 498 ;
499 [label="mse = 0.0\nsamples = 1\nvalue = 5.15"] ;
498 -> 499 ;
500 [label="mse = -0.0\nsamples = 1\nvalue = 4.95"] ;
498 -> 500 ;
501 [label="Modify <= 0.5\nmse = 0.011\nsamples = 3\nvalue = 4.77"] ;
497 -> 501 ;
502 [label="HuntLic <= 0.155\nmse = 0.0\nsamples = 2\nvalue = 4.845"] ;
501 -> 502 ;
503 [label="mse = 0.0\nsamples = 1\nvalue = 4.83"] ;
502 -> 503 ;
504 [label="mse = -0.0\nsamples = 1\nvalue = 4.86"] ;
502 -> 504 ;
505 [label="mse = -0.0\nsamples = 1\nvalue = 4.62"] ;
501 -> 505 ;
506 [label="HuntLic <= 0.157\nmse = 0.009\nsamples = 2\nvalue = 4.305"] ;
496 -> 506 ;
507 [label="mse = 0.0\nsamples = 1\nvalue = 4.4"] ;
506 -> 507 ;
508 [label="mse = 0.0\nsamples = 1\nvalue = 4.21"] ;
506 -> 508 ;
509 [label="background checks <= 1.5\nmse = 2.169\nsamples = 22\nvalue = 6.442"] ;
483 -> 509 ;
510 [label="GunsAmmo <= -1.105\nmse = 1.696\nsamples = 20\nvalue = 6.679"] ;
509 -> 510 ;
511 [label="Suicides <= 3.92\nmse = 1.171\nsamples = 6\nvalue = 5.477"] ;
510 -> 511 ;
512 [label="Suicides <= 3.76\nmse = 1.3\nsamples = 2\nvalue = 6.55"] ;
511 -> 512 ;
513 [label="mse = 0.0\nsamples = 1\nvalue = 5.41"] ;
512 -> 513 ;
514 [label="mse = -0.0\nsamples = 1\nvalue = 7.69"] ;
512 -> 514 ;
515 [label="GunsAmmo <= -1.333\nmse = 0.243\nsamples = 4\nvalue = 4.94"] ;
511 -> 515 ;
516 [label="mse = 0.0\nsamples = 1\nvalue = 4.26"] ;
515 -> 516 ;
517 [label="Modify <= 0.5\nmse = 0.119\nsamples = 3\nvalue = 5.167"] ;
515 -> 517 ;
518 [label="Suicides <= 4.165\nmse = 0.031\nsamples = 2\nvalue = 4.945"] ;
517 -> 518 ;
519 [label="mse = 0.0\nsamples = 1\nvalue = 4.77"] ;
518 -> 519 ;
520 [label="mse = -0.0\nsamples = 1\nvalue = 5.12"] ;
518 -> 520 ;
521 [label="mse = 0.0\nsamples = 1\nvalue = 5.61"] ;
517 -> 521 ;
522 [label="HuntLic <= 0.169\nmse = 1.035\nsamples = 14\nvalue = 7.195"] ;
510 -> 522 ;
523 [label="Suicides <= 5.84\nmse = 1.249\nsamples = 4\nvalue = 6.08"] ;
522 -> 523 ;
524 [label="GunsAmmo <= -0.883\nmse = 0.455\nsamples = 3\nvalue = 6.63"] ;
523 -> 524 ;
525 [label="mse = 0.0\nsamples = 1\nvalue = 7.51"] ;
524 -> 525 ;
526 [label="Restrictive <= 1.0\nmse = 0.102\nsamples = 2\nvalue = 6.19"] ;
524 -> 526 ;
527 [label="mse = 0.0\nsamples = 1\nvalue = 6.51"] ;
526 -> 527 ;
528 [label="mse = 0.0\nsamples = 1\nvalue = 5.87"] ;
526 -> 528 ;
529 [label="mse = 0.0\nsamples = 1\nvalue = 4.43"] ;
523 -> 529 ;
530 [label="Suicides <= 5.215\nmse = 0.253\nsamples = 10\nvalue = 7.641"] ;
522 -> 530 ;
531 [label="avg_own_est <= 0.272\nmse = 0.115\nsamples = 7\nvalue = 7.377"] ;
530 -> 531 ;
532 [label="GunsAmmo <= -0.848\nmse = 0.078\nsamples = 6\nvalue = 7.467"] ;
531 -> 532 ;
533 [label="background checks <= 0.5\nmse = 0.0\nsamples = 3\nvalue = 7.62"] ;
532 -> 533 ;
534 [label="Suicides <= 4.0\nmse = 0.0\nsamples = 2\nvalue = 7.635"] ;
533 -> 534 ;
535 [label="mse = 0.0\nsamples = 1\nvalue = 7.64"] ;
534 -> 535 ;
536 [label="mse = 0.0\nsamples = 1\nvalue = 7.63"] ;
534 -> 536 ;
537 [label="mse = -0.0\nsamples = 1\nvalue = 7.59"] ;
533 -> 537 ;
538 [label="Suicides <= 4.515\nmse = 0.109\nsamples = 3\nvalue = 7.313"] ;
532 -> 538 ;
539 [label="Restrictive <= 0.5\nmse = 0.04\nsamples = 2\nvalue = 7.11"] ;
538 -> 539 ;
540 [label="mse = 0.0\nsamples = 1\nvalue = 6.91"] ;
539 -> 540 ;
541 [label="mse = 0.0\nsamples = 1\nvalue = 7.31"] ;
539 -> 541 ;
542 [label="mse = 0.0\nsamples = 1\nvalue = 7.72"] ;
538 -> 542 ;
543 [label="mse = -0.0\nsamples = 1\nvalue = 6.84"] ;
531 -> 543 ;
544 [label="avg_own_est <= 0.289\nmse = 0.032\nsamples = 3\nvalue = 8.257"] ;
530 -> 544 ;
545 [label="mse = 0.0\nsamples = 1\nvalue = 8.51"] ;
544 -> 545 ;
546 [label="GunsAmmo <= -0.566\nmse = 0.0\nsamples = 2\nvalue = 8.13"] ;
544 -> 546 ;
547 [label="mse = 0.0\nsamples = 1\nvalue = 8.15"] ;
546 -> 547 ;
548 [label="mse = 0.0\nsamples = 1\nvalue = 8.11"] ;
546 -> 548 ;
549 [label="Implement <= 2.5\nmse = 0.706\nsamples = 2\nvalue = 4.07"] ;
509 -> 549 ;
550 [label="mse = 0.0\nsamples = 1\nvalue = 4.91"] ;
549 -> 550 ;
551 [label="mse = -0.0\nsamples = 1\nvalue = 3.23"] ;
549 -> 551 ;
552 [label="avg_own_est <= 0.247\nmse = 1.188\nsamples = 6\nvalue = 8.197"] ;
474 -> 552 ;
553 [label="Suicides <= 3.76\nmse = 0.04\nsamples = 3\nvalue = 7.127"] ;
552 -> 553 ;
554 [label="mse = 0.0\nsamples = 1\nvalue = 7.38"] ;
553 -> 554 ;
555 [label="HuntLic <= 0.235\nmse = 0.012\nsamples = 2\nvalue = 7.0"] ;
553 -> 555 ;
556 [label="mse = 0.0\nsamples = 1\nvalue = 7.11"] ;
555 -> 556 ;
557 [label="mse = 0.0\nsamples = 1\nvalue = 6.89"] ;
555 -> 557 ;
558 [label="HuntLic <= 0.281\nmse = 0.046\nsamples = 3\nvalue = 9.267"] ;
552 -> 558 ;
559 [label="mse = 0.0\nsamples = 1\nvalue = 9.57"] ;
558 -> 559 ;
560 [label="HuntLic <= 0.283\nmse = 0.0\nsamples = 2\nvalue = 9.115"] ;
558 -> 560 ;
561 [label="mse = 0.0\nsamples = 1\nvalue = 9.12"] ;
560 -> 561 ;
562 [label="mse = 0.0\nsamples = 1\nvalue = 9.11"] ;
560 -> 562 ;
563 [label="HuntLic <= 0.41\nmse = 1.293\nsamples = 6\nvalue = 8.683"] ;
217 -> 563 ;
564 [label="Suicides <= 7.23\nmse = 0.177\nsamples = 3\nvalue = 9.767"] ;
563 -> 564 ;
565 [label="mse = 0.0\nsamples = 1\nvalue = 10.33"] ;
564 -> 565 ;
566 [label="GunsAmmo <= -0.697\nmse = 0.027\nsamples = 2\nvalue = 9.485"] ;
564 -> 566 ;
567 [label="mse = 0.0\nsamples = 1\nvalue = 9.65"] ;
566 -> 567 ;
568 [label="mse = 0.0\nsamples = 1\nvalue = 9.32"] ;
566 -> 568 ;
569 [label="prohibited possessor <= 1.0\nmse = 0.063\nsamples = 3\nvalue = 7.6"] ;
563 -> 569 ;
570 [label="Suicides <= 6.35\nmse = 0.002\nsamples = 2\nvalue = 7.425"] ;
569 -> 570 ;
571 [label="mse = 0.0\nsamples = 1\nvalue = 7.47"] ;
570 -> 571 ;
572 [label="mse = 0.0\nsamples = 1\nvalue = 7.38"] ;
570 -> 572 ;
573 [label="mse = 0.0\nsamples = 1\nvalue = 7.95"] ;
569 -> 573 ;
574 [label="universl <= 0.5\nmse = 3.114\nsamples = 195\nvalue = 3.241"] ;
216 -> 574 ;
575 [label="HuntLic <= 0.326\nmse = 2.24\nsamples = 153\nvalue = 2.801"] ;
574 -> 575 ;
576 [label="HuntLic <= 0.253\nmse = 1.343\nsamples = 60\nvalue = 3.915"] ;
575 -> 576 ;
577 [label="GunsAmmo <= 0.038\nmse = 1.167\nsamples = 18\nvalue = 4.701"] ;
576 -> 577 ;
578 [label="avg_own_est <= 0.417\nmse = 0.547\nsamples = 10\nvalue = 5.33"] ;
577 -> 578 ;
579 [label="HuntLic <= 0.238\nmse = 0.135\nsamples = 5\nvalue = 4.806"] ;
578 -> 579 ;
580 [label="HuntLic <= 0.237\nmse = 0.031\nsamples = 4\nvalue = 4.64"] ;
579 -> 580 ;
581 [label="HuntLic <= 0.223\nmse = 0.003\nsamples = 3\nvalue = 4.543"] ;
580 -> 581 ;
582 [label="Suicides <= 4.425\nmse = 0.001\nsamples = 2\nvalue = 4.505"] ;
581 -> 582 ;
583 [label="mse = 0.0\nsamples = 1\nvalue = 4.48"] ;
582 -> 583 ;
584 [label="mse = -0.0\nsamples = 1\nvalue = 4.53"] ;
582 -> 584 ;
585 [label="mse = -0.0\nsamples = 1\nvalue = 4.62"] ;
581 -> 585 ;
586 [label="mse = 0.0\nsamples = 1\nvalue = 4.93"] ;
580 -> 586 ;
587 [label="mse = 0.0\nsamples = 1\nvalue = 5.47"] ;
579 -> 587 ;
588 [label="permit <= 0.5\nmse = 0.409\nsamples = 5\nvalue = 5.854"] ;
578 -> 588 ;
589 [label="mse = 0.0\nsamples = 1\nvalue = 7.13"] ;
588 -> 589 ;
590 [label="avg_own_est <= 0.484\nmse = 0.003\nsamples = 4\nvalue = 5.535"] ;
588 -> 590 ;
591 [label="GunsAmmo <= -0.196\nmse = 0.001\nsamples = 3\nvalue = 5.51"] ;
590 -> 591 ;
592 [label="mse = 0.0\nsamples = 1\nvalue = 5.56"] ;
591 -> 592 ;
593 [label="HuntLic <= 0.243\nmse = 0.0\nsamples = 2\nvalue = 5.485"] ;
591 -> 593 ;
594 [label="mse = 0.0\nsamples = 1\nvalue = 5.49"] ;
593 -> 594 ;
595 [label="mse = -0.0\nsamples = 1\nvalue = 5.48"] ;
593 -> 595 ;
596 [label="mse = 0.0\nsamples = 1\nvalue = 5.61"] ;
590 -> 596 ;
597 [label="avg_own_est <= 0.339\nmse = 0.83\nsamples = 8\nvalue = 3.915"] ;
577 -> 597 ;
598 [label="mse = 0.0\nsamples = 1\nvalue = 1.74"] ;
597 -> 598 ;
599 [label="HuntLic <= 0.234\nmse = 0.176\nsamples = 7\nvalue = 4.226"] ;
597 -> 599 ;
600 [label="HuntLic <= 0.196\nmse = 0.038\nsamples = 4\nvalue = 3.895"] ;
599 -> 600 ;
601 [label="HuntLic <= 0.182\nmse = 0.0\nsamples = 2\nvalue = 4.09"] ;
600 -> 601 ;
602 [label="mse = 0.0\nsamples = 1\nvalue = 4.08"] ;
601 -> 602 ;
603 [label="mse = 0.0\nsamples = 1\nvalue = 4.1"] ;
601 -> 603 ;
604 [label="Suicides <= 5.885\nmse = 0.0\nsamples = 2\nvalue = 3.7"] ;
600 -> 604 ;
605 [label="mse = 0.0\nsamples = 1\nvalue = 3.68"] ;
604 -> 605 ;
606 [label="mse = -0.0\nsamples = 1\nvalue = 3.72"] ;
604 -> 606 ;
607 [label="Restrictive <= 1.5\nmse = 0.02\nsamples = 3\nvalue = 4.667"] ;
599 -> 607 ;
608 [label="Suicides <= 7.44\nmse = 0.002\nsamples = 2\nvalue = 4.57"] ;
607 -> 608 ;
609 [label="mse = 0.0\nsamples = 1\nvalue = 4.53"] ;
608 -> 609 ;
610 [label="mse = 0.0\nsamples = 1\nvalue = 4.61"] ;
608 -> 610 ;
611 [label="mse = 0.0\nsamples = 1\nvalue = 4.86"] ;
607 -> 611 ;
612 [label="avg_own_est <= 0.52\nmse = 1.04\nsamples = 42\nvalue = 3.578"] ;
576 -> 612 ;
613 [label="Suicides <= 7.84\nmse = 0.685\nsamples = 41\nvalue = 3.483"] ;
612 -> 613 ;
614 [label="GunsAmmo <= -0.23\nmse = 0.505\nsamples = 39\nvalue = 3.581"] ;
613 -> 614 ;
615 [label="avg_own_est <= 0.337\nmse = 0.34\nsamples = 11\nvalue = 3.135"] ;
614 -> 615 ;
616 [label="GunsAmmo <= -0.287\nmse = 0.07\nsamples = 3\nvalue = 2.653"] ;
615 -> 616 ;
617 [label="mse = 0.0\nsamples = 1\nvalue = 2.28"] ;
616 -> 617 ;
618 [label="HuntLic <= 0.308\nmse = 0.0\nsamples = 2\nvalue = 2.84"] ;
616 -> 618 ;
619 [label="mse = 0.0\nsamples = 1\nvalue = 2.83"] ;
618 -> 619 ;
620 [label="mse = 0.0\nsamples = 1\nvalue = 2.85"] ;
618 -> 620 ;
621 [label="HuntLic <= 0.308\nmse = 0.322\nsamples = 8\nvalue = 3.315"] ;
615 -> 621 ;
622 [label="GunsAmmo <= -0.271\nmse = 0.08\nsamples = 6\nvalue = 3.032"] ;
621 -> 622 ;
623 [label="HuntLic <= 0.306\nmse = 0.032\nsamples = 3\nvalue = 3.28"] ;
622 -> 623 ;
624 [label="mse = 0.0\nsamples = 1\nvalue = 3.03"] ;
623 -> 624 ;
625 [label="avg_own_est <= 0.352\nmse = 0.001\nsamples = 2\nvalue = 3.405"] ;
623 -> 625 ;
626 [label="mse = 0.0\nsamples = 1\nvalue = 3.37"] ;
625 -> 626 ;
627 [label="mse = -0.0\nsamples = 1\nvalue = 3.44"] ;
625 -> 627 ;
628 [label="HuntLic <= 0.303\nmse = 0.004\nsamples = 3\nvalue = 2.783"] ;
622 -> 628 ;
629 [label="mse = 0.0\nsamples = 1\nvalue = 2.7"] ;
628 -> 629 ;
630 [label="HuntLic <= 0.306\nmse = 0.001\nsamples = 2\nvalue = 2.825"] ;
628 -> 630 ;
631 [label="mse = 0.0\nsamples = 1\nvalue = 2.8"] ;
630 -> 631 ;
632 [label="mse = -0.0\nsamples = 1\nvalue = 2.85"] ;
630 -> 632 ;
633 [label="HuntLic <= 0.316\nmse = 0.087\nsamples = 2\nvalue = 4.165"] ;
621 -> 633 ;
634 [label="mse = 0.0\nsamples = 1\nvalue = 3.87"] ;
633 -> 634 ;
635 [label="mse = -0.0\nsamples = 1\nvalue = 4.46"] ;
633 -> 635 ;
636 [label="avg_own_est <= 0.431\nmse = 0.46\nsamples = 28\nvalue = 3.756"] ;
614 -> 636 ;
637 [label="GunsAmmo <= 0.251\nmse = 0.379\nsamples = 23\nvalue = 3.617"] ;
636 -> 637 ;
638 [label="HuntLic <= 0.317\nmse = 0.134\nsamples = 20\nvalue = 3.808"] ;
637 -> 638 ;
639 [label="GunsAmmo <= -0.19\nmse = 0.09\nsamples = 18\nvalue = 3.733"] ;
638 -> 639 ;
640 [label="mse = 0.0\nsamples = 1\nvalue = 3.14"] ;
639 -> 640 ;
641 [label="Suicides <= 6.43\nmse = 0.074\nsamples = 17\nvalue = 3.768"] ;
639 -> 641 ;
642 [label="GunsAmmo <= -0.12\nmse = 0.07\nsamples = 10\nvalue = 3.667"] ;
641 -> 642 ;
643 [label="HuntLic <= 0.313\nmse = 0.03\nsamples = 5\nvalue = 3.83"] ;
642 -> 643 ;
644 [label="Suicides <= 5.915\nmse = 0.017\nsamples = 4\nvalue = 3.768"] ;
643 -> 644 ;
645 [label="HuntLic <= 0.305\nmse = 0.001\nsamples = 3\nvalue = 3.693"] ;
644 -> 645 ;
646 [label="mse = 0.0\nsamples = 1\nvalue = 3.74"] ;
645 -> 646 ;
647 [label="GunsAmmo <= -0.171\nmse = 0.0\nsamples = 2\nvalue = 3.67"] ;
645 -> 647 ;
648 [label="mse = 0.0\nsamples = 1\nvalue = 3.66"] ;
647 -> 648 ;
649 [label="mse = 0.0\nsamples = 1\nvalue = 3.68"] ;
647 -> 649 ;
650 [label="mse = 0.0\nsamples = 1\nvalue = 3.99"] ;
644 -> 650 ;
651 [label="mse = 0.0\nsamples = 1\nvalue = 4.08"] ;
643 -> 651 ;
652 [label="avg_own_est <= 0.38\nmse = 0.058\nsamples = 5\nvalue = 3.504"] ;
642 -> 652 ;
653 [label="Suicides <= 6.07\nmse = 0.009\nsamples = 3\nvalue = 3.687"] ;
652 -> 653 ;
654 [label="mse = 0.0\nsamples = 1\nvalue = 3.82"] ;
653 -> 654 ;
655 [label="avg_own_est <= 0.339\nmse = 0.0\nsamples = 2\nvalue = 3.62"] ;
653 -> 655 ;
656 [label="mse = 0.0\nsamples = 1\nvalue = 3.62"] ;
655 -> 656 ;
657 [label="mse = 0.0\nsamples = 1\nvalue = 3.62"] ;
655 -> 657 ;
658 [label="GunsAmmo <= -0.091\nmse = 0.006\nsamples = 2\nvalue = 3.23"] ;
652 -> 658 ;
659 [label="mse = 0.0\nsamples = 1\nvalue = 3.31"] ;
658 -> 659 ;
660 [label="mse = -0.0\nsamples = 1\nvalue = 3.15"] ;
658 -> 660 ;
661 [label="HuntLic <= 0.259\nmse = 0.043\nsamples = 7\nvalue = 3.911"] ;
641 -> 661 ;
662 [label="mse = 0.0\nsamples = 1\nvalue = 3.51"] ;
661 -> 662 ;
663 [label="avg_own_est <= 0.382\nmse = 0.019\nsamples = 6\nvalue = 3.978"] ;
661 -> 663 ;
664 [label="Suicides <= 7.09\nmse = 0.004\nsamples = 2\nvalue = 3.815"] ;
663 -> 664 ;
665 [label="mse = 0.0\nsamples = 1\nvalue = 3.75"] ;
664 -> 665 ;
666 [label="mse = 0.0\nsamples = 1\nvalue = 3.88"] ;
664 -> 666 ;
667 [label="HuntLic <= 0.273\nmse = 0.006\nsamples = 4\nvalue = 4.06"] ;
663 -> 667 ;
668 [label="avg_own_est <= 0.388\nmse = 0.002\nsamples = 3\nvalue = 4.02"] ;
667 -> 668 ;
669 [label="mse = 0.0\nsamples = 1\nvalue = 3.96"] ;
668 -> 669 ;
670 [label="GunsAmmo <= 0.036\nmse = 0.0\nsamples = 2\nvalue = 4.05"] ;
668 -> 670 ;
671 [label="mse = 0.0\nsamples = 1\nvalue = 4.05"] ;
670 -> 671 ;
672 [label="mse = 0.0\nsamples = 1\nvalue = 4.05"] ;
670 -> 672 ;
673 [label="mse = 0.0\nsamples = 1\nvalue = 4.18"] ;
667 -> 673 ;
674 [label="avg_own_est <= 0.364\nmse = 0.008\nsamples = 2\nvalue = 4.49"] ;
638 -> 674 ;
675 [label="mse = 0.0\nsamples = 1\nvalue = 4.58"] ;
674 -> 675 ;
676 [label="mse = 0.0\nsamples = 1\nvalue = 4.4"] ;
674 -> 676 ;
677 [label="Suicides <= 6.725\nmse = 0.128\nsamples = 3\nvalue = 2.337"] ;
637 -> 677 ;
678 [label="mse = 0.0\nsamples = 1\nvalue = 1.87"] ;
677 -> 678 ;
679 [label="GunsAmmo <= 0.423\nmse = 0.029\nsamples = 2\nvalue = 2.57"] ;
677 -> 679 ;
680 [label="mse = 0.0\nsamples = 1\nvalue = 2.4"] ;
679 -> 680 ;
681 [label="mse = -0.0\nsamples = 1\nvalue = 2.74"] ;
679 -> 681 ;
682 [label="Suicides <= 6.95\nmse = 0.332\nsamples = 5\nvalue = 4.4"] ;
636 -> 682 ;
683 [label="mse = 0.0\nsamples = 1\nvalue = 3.51"] ;
682 -> 683 ;
684 [label="GunsAmmo <= 0.013\nmse = 0.168\nsamples = 4\nvalue = 4.623"] ;
682 -> 684 ;
685 [label="mse = 0.0\nsamples = 1\nvalue = 3.96"] ;
684 -> 685 ;
686 [label="GunsAmmo <= 0.226\nmse = 0.029\nsamples = 3\nvalue = 4.843"] ;
684 -> 686 ;
687 [label="Suicides <= 7.46\nmse = 0.001\nsamples = 2\nvalue = 4.725"] ;
686 -> 687 ;
688 [label="mse = 0.0\nsamples = 1\nvalue = 4.76"] ;
687 -> 688 ;
689 [label="mse = 0.0\nsamples = 1\nvalue = 4.69"] ;
687 -> 689 ;
690 [label="mse = -0.0\nsamples = 1\nvalue = 5.08"] ;
686 -> 690 ;
691 [label="Suicides <= 7.91\nmse = 0.348\nsamples = 2\nvalue = 1.57"] ;
613 -> 691 ;
692 [label="mse = 0.0\nsamples = 1\nvalue = 2.16"] ;
691 -> 692 ;
693 [label="mse = 0.0\nsamples = 1\nvalue = 0.98"] ;
691 -> 693 ;
694 [label="mse = 0.0\nsamples = 1\nvalue = 7.48"] ;
612 -> 694 ;
695 [label="Suicides <= 7.415\nmse = 1.501\nsamples = 93\nvalue = 2.082"] ;
575 -> 695 ;
696 [label="GunsAmmo <= 0.109\nmse = 0.919\nsamples = 71\nvalue = 1.794"] ;
695 -> 696 ;
697 [label="Suicides <= 5.35\nmse = 0.353\nsamples = 18\nvalue = 1.101"] ;
696 -> 697 ;
698 [label="Restrictive <= 0.5\nmse = 0.07\nsamples = 5\nvalue = 0.686"] ;
697 -> 698 ;
699 [label="GunsAmmo <= -0.244\nmse = 0.026\nsamples = 4\nvalue = 0.575"] ;
698 -> 699 ;
700 [label="mse = 0.0\nsamples = 1\nvalue = 0.82"] ;
699 -> 700 ;
701 [label="GunsAmmo <= -0.163\nmse = 0.008\nsamples = 3\nvalue = 0.493"] ;
699 -> 701 ;
702 [label="mse = 0.0\nsamples = 1\nvalue = 0.61"] ;
701 -> 702 ;
703 [label="Suicides <= 5.055\nmse = 0.001\nsamples = 2\nvalue = 0.435"] ;
701 -> 703 ;
704 [label="mse = 0.0\nsamples = 1\nvalue = 0.47"] ;
703 -> 704 ;
705 [label="mse = 0.0\nsamples = 1\nvalue = 0.4"] ;
703 -> 705 ;
706 [label="mse = 0.0\nsamples = 1\nvalue = 1.13"] ;
698 -> 706 ;
707 [label="HuntLic <= 0.411\nmse = 0.37\nsamples = 13\nvalue = 1.261"] ;
697 -> 707 ;
708 [label="GunsAmmo <= -0.047\nmse = 0.295\nsamples = 10\nvalue = 1.063"] ;
707 -> 708 ;
709 [label="HuntLic <= 0.355\nmse = 0.046\nsamples = 4\nvalue = 0.67"] ;
708 -> 709 ;
710 [label="mse = 0.0\nsamples = 1\nvalue = 0.33"] ;
709 -> 710 ;
711 [label="GunsAmmo <= -0.15\nmse = 0.01\nsamples = 3\nvalue = 0.783"] ;
709 -> 711 ;
712 [label="Implement <= 0.5\nmse = 0.0\nsamples = 2\nvalue = 0.855"] ;
711 -> 712 ;
713 [label="mse = 0.0\nsamples = 1\nvalue = 0.86"] ;
712 -> 713 ;
714 [label="mse = 0.0\nsamples = 1\nvalue = 0.85"] ;
712 -> 714 ;
715 [label="mse = -0.0\nsamples = 1\nvalue = 0.64"] ;
711 -> 715 ;
716 [label="HuntLic <= 0.379\nmse = 0.29\nsamples = 6\nvalue = 1.325"] ;
708 -> 716 ;
717 [label="avg_own_est <= 0.444\nmse = 0.181\nsamples = 4\nvalue = 1.612"] ;
716 -> 717 ;
718 [label="Suicides <= 6.59\nmse = 0.009\nsamples = 3\nvalue = 1.853"] ;
717 -> 718 ;
719 [label="avg_own_est <= 0.385\nmse = 0.0\nsamples = 2\nvalue = 1.92"] ;
718 -> 719 ;
720 [label="mse = 0.0\nsamples = 1\nvalue = 1.93"] ;
719 -> 720 ;
721 [label="mse = -0.0\nsamples = 1\nvalue = 1.91"] ;
719 -> 721 ;
722 [label="mse = 0.0\nsamples = 1\nvalue = 1.72"] ;
718 -> 722 ;
723 [label="mse = 0.0\nsamples = 1\nvalue = 0.89"] ;
717 -> 723 ;
724 [label="Suicides <= 6.47\nmse = 0.012\nsamples = 2\nvalue = 0.75"] ;
716 -> 724 ;
725 [label="mse = 0.0\nsamples = 1\nvalue = 0.64"] ;
724 -> 725 ;
726 [label="mse = 0.0\nsamples = 1\nvalue = 0.86"] ;
724 -> 726 ;
727 [label="HuntLic <= 0.444\nmse = 0.055\nsamples = 3\nvalue = 1.92"] ;
707 -> 727 ;
728 [label="GunsAmmo <= -0.231\nmse = 0.011\nsamples = 2\nvalue = 2.075"] ;
727 -> 728 ;
729 [label="mse = 0.0\nsamples = 1\nvalue = 2.18"] ;
728 -> 729 ;
730 [label="mse = -0.0\nsamples = 1\nvalue = 1.97"] ;
728 -> 730 ;
731 [label="mse = -0.0\nsamples = 1\nvalue = 1.61"] ;
727 -> 731 ;
732 [label="GunsAmmo <= 0.162\nmse = 0.894\nsamples = 53\nvalue = 2.029"] ;
696 -> 732 ;
733 [label="HuntLic <= 0.378\nmse = 1.581\nsamples = 8\nvalue = 2.965"] ;
732 -> 733 ;
734 [label="GunsAmmo <= 0.131\nmse = 0.156\nsamples = 2\nvalue = 1.385"] ;
733 -> 734 ;
735 [label="mse = 0.0\nsamples = 1\nvalue = 0.99"] ;
734 -> 735 ;
736 [label="mse = 0.0\nsamples = 1\nvalue = 1.78"] ;
734 -> 736 ;
737 [label="permit <= 0.5\nmse = 0.946\nsamples = 6\nvalue = 3.492"] ;
733 -> 737 ;
738 [label="GunsAmmo <= 0.148\nmse = 0.297\nsamples = 4\nvalue = 4.085"] ;
737 -> 738 ;
739 [label="GunsAmmo <= 0.117\nmse = 0.093\nsamples = 3\nvalue = 4.36"] ;
738 -> 739 ;
740 [label="mse = 0.0\nsamples = 1\nvalue = 4.79"] ;
739 -> 740 ;
741 [label="background checks <= 0.5\nmse = 0.001\nsamples = 2\nvalue = 4.145"] ;
739 -> 741 ;
742 [label="mse = 0.0\nsamples = 1\nvalue = 4.18"] ;
741 -> 742 ;
743 [label="mse = 0.0\nsamples = 1\nvalue = 4.11"] ;
741 -> 743 ;
744 [label="mse = 0.0\nsamples = 1\nvalue = 3.26"] ;
738 -> 744 ;
745 [label="avg_own_est <= 0.554\nmse = 0.133\nsamples = 2\nvalue = 2.305"] ;
737 -> 745 ;
746 [label="mse = 0.0\nsamples = 1\nvalue = 2.67"] ;
745 -> 746 ;
747 [label="mse = 0.0\nsamples = 1\nvalue = 1.94"] ;
745 -> 747 ;
748 [label="HuntLic <= 0.443\nmse = 0.588\nsamples = 45\nvalue = 1.862"] ;
732 -> 748 ;
749 [label="GunsAmmo <= 0.499\nmse = 0.674\nsamples = 33\nvalue = 1.731"] ;
748 -> 749 ;
750 [label="HuntLic <= 0.422\nmse = 0.356\nsamples = 24\nvalue = 1.493"] ;
749 -> 750 ;
751 [label="HuntLic <= 0.388\nmse = 0.292\nsamples = 18\nvalue = 1.329"] ;
750 -> 751 ;
752 [label="avg_own_est <= 0.442\nmse = 0.207\nsamples = 11\nvalue = 1.624"] ;
751 -> 752 ;
753 [label="GunsAmmo <= 0.221\nmse = 0.106\nsamples = 7\nvalue = 1.887"] ;
752 -> 753 ;
754 [label="GunsAmmo <= 0.185\nmse = 0.05\nsamples = 4\nvalue = 1.647"] ;
753 -> 754 ;
755 [label="mse = 0.0\nsamples = 1\nvalue = 1.3"] ;
754 -> 755 ;
756 [label="GunsAmmo <= 0.203\nmse = 0.013\nsamples = 3\nvalue = 1.763"] ;
754 -> 756 ;
757 [label="mse = 0.0\nsamples = 1\nvalue = 1.618"] ;
756 -> 757 ;
758 [label="GunsAmmo <= 0.212\nmse = 0.004\nsamples = 2\nvalue = 1.835"] ;
756 -> 758 ;
759 [label="mse = 0.0\nsamples = 1\nvalue = 1.9"] ;
758 -> 759 ;
760 [label="mse = 0.0\nsamples = 1\nvalue = 1.77"] ;
758 -> 760 ;
761 [label="HuntLic <= 0.379\nmse = 0.001\nsamples = 3\nvalue = 2.208"] ;
753 -> 761 ;
762 [label="Modify <= 0.5\nmse = 0.0\nsamples = 2\nvalue = 2.192"] ;
761 -> 762 ;
763 [label="mse = 0.0\nsamples = 1\nvalue = 2.194"] ;
762 -> 763 ;
764 [label="mse = -0.0\nsamples = 1\nvalue = 2.19"] ;
762 -> 764 ;
765 [label="mse = -0.0\nsamples = 1\nvalue = 2.24"] ;
761 -> 765 ;
766 [label="Modify <= 0.5\nmse = 0.05\nsamples = 4\nvalue = 1.164"] ;
752 -> 766 ;
767 [label="avg_own_est <= 0.499\nmse = 0.001\nsamples = 3\nvalue = 1.291"] ;
766 -> 767 ;
768 [label="Suicides <= 6.325\nmse = 0.0\nsamples = 2\nvalue = 1.317"] ;
767 -> 768 ;
769 [label="mse = 0.0\nsamples = 1\nvalue = 1.324"] ;
768 -> 769 ;
770 [label="mse = 0.0\nsamples = 1\nvalue = 1.31"] ;
768 -> 770 ;
771 [label="mse = -0.0\nsamples = 1\nvalue = 1.24"] ;
767 -> 771 ;
772 [label="mse = 0.0\nsamples = 1\nvalue = 0.78"] ;
766 -> 772 ;
773 [label="GunsAmmo <= 0.397\nmse = 0.074\nsamples = 7\nvalue = 0.866"] ;
751 -> 773 ;
774 [label="GunsAmmo <= 0.264\nmse = 0.002\nsamples = 3\nvalue = 0.563"] ;
773 -> 774 ;
775 [label="mse = 0.0\nsamples = 1\nvalue = 0.5"] ;
774 -> 775 ;
776 [label="Suicides <= 6.495\nmse = 0.001\nsamples = 2\nvalue = 0.595"] ;
774 -> 776 ;
777 [label="mse = 0.0\nsamples = 1\nvalue = 0.62"] ;
776 -> 777 ;
778 [label="mse = 0.0\nsamples = 1\nvalue = 0.57"] ;
776 -> 778 ;
779 [label="HuntLic <= 0.41\nmse = 0.008\nsamples = 4\nvalue = 1.092"] ;
773 -> 779 ;
780 [label="avg_own_est <= 0.486\nmse = 0.0\nsamples = 2\nvalue = 1.175"] ;
779 -> 780 ;
781 [label="mse = 0.0\nsamples = 1\nvalue = 1.17"] ;
780 -> 781 ;
782 [label="mse = 0.0\nsamples = 1\nvalue = 1.18"] ;
780 -> 782 ;
783 [label="GunsAmmo <= 0.475\nmse = 0.002\nsamples = 2\nvalue = 1.01"] ;
779 -> 783 ;
784 [label="mse = 0.0\nsamples = 1\nvalue = 1.06"] ;
783 -> 784 ;
785 [label="mse = 0.0\nsamples = 1\nvalue = 0.96"] ;
783 -> 785 ;
786 [label="GunsAmmo <= 0.354\nmse = 0.228\nsamples = 6\nvalue = 1.983"] ;
750 -> 786 ;
787 [label="HuntLic <= 0.441\nmse = 0.138\nsamples = 4\nvalue = 2.238"] ;
786 -> 787 ;
788 [label="Modify <= 0.5\nmse = 0.008\nsamples = 2\nvalue = 2.58"] ;
787 -> 788 ;
789 [label="mse = 0.0\nsamples = 1\nvalue = 2.67"] ;
788 -> 789 ;
790 [label="mse = 0.0\nsamples = 1\nvalue = 2.49"] ;
788 -> 790 ;
791 [label="Suicides <= 6.34\nmse = 0.034\nsamples = 2\nvalue = 1.895"] ;
787 -> 791 ;
792 [label="mse = 0.0\nsamples = 1\nvalue = 1.71"] ;
791 -> 792 ;
793 [label="mse = 0.0\nsamples = 1\nvalue = 2.08"] ;
791 -> 793 ;
794 [label="avg_own_est <= 0.474\nmse = 0.018\nsamples = 2\nvalue = 1.475"] ;
786 -> 794 ;
795 [label="mse = 0.0\nsamples = 1\nvalue = 1.61"] ;
794 -> 795 ;
796 [label="mse = 0.0\nsamples = 1\nvalue = 1.34"] ;
794 -> 796 ;
797 [label="GunsAmmo <= 0.614\nmse = 0.967\nsamples = 9\nvalue = 2.366"] ;
749 -> 797 ;
798 [label="Suicides <= 6.795\nmse = 0.85\nsamples = 6\nvalue = 2.812"] ;
797 -> 798 ;
799 [label="avg_own_est <= 0.415\nmse = 0.836\nsamples = 4\nvalue = 2.438"] ;
798 -> 799 ;
800 [label="GunsAmmo <= 0.558\nmse = 0.092\nsamples = 3\nvalue = 2.943"] ;
799 -> 800 ;
801 [label="GunsAmmo <= 0.518\nmse = 0.001\nsamples = 2\nvalue = 2.73"] ;
800 -> 801 ;
802 [label="mse = 0.0\nsamples = 1\nvalue = 2.76"] ;
801 -> 802 ;
803 [label="mse = -0.0\nsamples = 1\nvalue = 2.7"] ;
801 -> 803 ;
804 [label="mse = -0.0\nsamples = 1\nvalue = 3.37"] ;
800 -> 804 ;
805 [label="mse = -0.0\nsamples = 1\nvalue = 0.92"] ;
799 -> 805 ;
806 [label="avg_own_est <= 0.481\nmse = 0.036\nsamples = 2\nvalue = 3.56"] ;
798 -> 806 ;
807 [label="mse = 0.0\nsamples = 1\nvalue = 3.75"] ;
806 -> 807 ;
808 [label="mse = 0.0\nsamples = 1\nvalue = 3.37"] ;
806 -> 808 ;
809 [label="Suicides <= 6.675\nmse = 0.012\nsamples = 3\nvalue = 1.475"] ;
797 -> 809 ;
810 [label="GunsAmmo <= 0.627\nmse = 0.002\nsamples = 2\nvalue = 1.548"] ;
809 -> 810 ;
811 [label="mse = 0.0\nsamples = 1\nvalue = 1.59"] ;
810 -> 811 ;
812 [label="mse = 0.0\nsamples = 1\nvalue = 1.506"] ;
810 -> 812 ;
813 [label="mse = -0.0\nsamples = 1\nvalue = 1.33"] ;
809 -> 813 ;
814 [label="GunsAmmo <= 0.476\nmse = 0.173\nsamples = 12\nvalue = 2.223"] ;
748 -> 814 ;
815 [label="GunsAmmo <= 0.328\nmse = 0.066\nsamples = 10\nvalue = 2.368"] ;
814 -> 815 ;
816 [label="Restrictive <= 0.5\nmse = 0.023\nsamples = 6\nvalue = 2.203"] ;
815 -> 816 ;
817 [label="avg_own_est <= 0.497\nmse = 0.002\nsamples = 4\nvalue = 2.308"] ;
816 -> 817 ;
818 [label="mse = 0.0\nsamples = 1\nvalue = 2.25"] ;
817 -> 818 ;
819 [label="avg_own_est <= 0.533\nmse = 0.001\nsamples = 3\nvalue = 2.327"] ;
817 -> 819 ;
820 [label="avg_own_est <= 0.509\nmse = 0.0\nsamples = 2\nvalue = 2.31"] ;
819 -> 820 ;
821 [label="mse = 0.0\nsamples = 1\nvalue = 2.32"] ;
820 -> 821 ;
822 [label="mse = 0.0\nsamples = 1\nvalue = 2.3"] ;
820 -> 822 ;
823 [label="mse = -0.0\nsamples = 1\nvalue = 2.36"] ;
819 -> 823 ;
824 [label="GunsAmmo <= 0.231\nmse = 0.002\nsamples = 2\nvalue = 1.995"] ;
816 -> 824 ;
825 [label="mse = 0.0\nsamples = 1\nvalue = 2.04"] ;
824 -> 825 ;
826 [label="mse = -0.0\nsamples = 1\nvalue = 1.95"] ;
824 -> 826 ;
827 [label="GunsAmmo <= 0.42\nmse = 0.028\nsamples = 4\nvalue = 2.615"] ;
815 -> 827 ;
828 [label="Suicides <= 6.03\nmse = 0.006\nsamples = 3\nvalue = 2.703"] ;
827 -> 828 ;
829 [label="HuntLic <= 0.455\nmse = 0.001\nsamples = 2\nvalue = 2.755"] ;
828 -> 829 ;
830 [label="mse = 0.0\nsamples = 1\nvalue = 2.79"] ;
829 -> 830 ;
831 [label="mse = 0.0\nsamples = 1\nvalue = 2.72"] ;
829 -> 831 ;
832 [label="mse = 0.0\nsamples = 1\nvalue = 2.6"] ;
828 -> 832 ;
833 [label="mse = 0.0\nsamples = 1\nvalue = 2.35"] ;
827 -> 833 ;
834 [label="avg_own_est <= 0.429\nmse = 0.078\nsamples = 2\nvalue = 1.5"] ;
814 -> 834 ;
835 [label="mse = 0.0\nsamples = 1\nvalue = 1.22"] ;
834 -> 835 ;
836 [label="mse = 0.0\nsamples = 1\nvalue = 1.78"] ;
834 -> 836 ;
837 [label="HuntLic <= 0.348\nmse = 2.245\nsamples = 22\nvalue = 3.012"] ;
695 -> 837 ;
838 [label="avg_own_est <= 0.514\nmse = 0.199\nsamples = 5\nvalue = 4.932"] ;
837 -> 838 ;
839 [label="GunsAmmo <= 0.194\nmse = 0.003\nsamples = 3\nvalue = 5.267"] ;
838 -> 839 ;
840 [label="background checks <= 0.5\nmse = 0.0\nsamples = 2\nvalue = 5.305"] ;
839 -> 840 ;
841 [label="mse = 0.0\nsamples = 1\nvalue = 5.3"] ;
840 -> 841 ;
842 [label="mse = -0.0\nsamples = 1\nvalue = 5.31"] ;
840 -> 842 ;
843 [label="mse = -0.0\nsamples = 1\nvalue = 5.19"] ;
839 -> 843 ;
844 [label="avg_own_est <= 0.553\nmse = 0.073\nsamples = 2\nvalue = 4.43"] ;
838 -> 844 ;
845 [label="mse = 0.0\nsamples = 1\nvalue = 4.16"] ;
844 -> 845 ;
846 [label="mse = 0.0\nsamples = 1\nvalue = 4.7"] ;
844 -> 846 ;
847 [label="GunsAmmo <= 0.432\nmse = 1.444\nsamples = 17\nvalue = 2.447"] ;
837 -> 847 ;
848 [label="HuntLic <= 0.369\nmse = 0.284\nsamples = 8\nvalue = 1.459"] ;
847 -> 848 ;
849 [label="Suicides <= 7.73\nmse = 0.16\nsamples = 2\nvalue = 2.22"] ;
848 -> 849 ;
850 [label="mse = 0.0\nsamples = 1\nvalue = 2.62"] ;
849 -> 850 ;
851 [label="mse = -0.0\nsamples = 1\nvalue = 1.82"] ;
849 -> 851 ;
852 [label="Restrictive <= 1.0\nmse = 0.068\nsamples = 6\nvalue = 1.205"] ;
848 -> 852 ;
853 [label="GunsAmmo <= 0.424\nmse = 0.025\nsamples = 4\nvalue = 1.052"] ;
852 -> 853 ;
854 [label="GunsAmmo <= 0.208\nmse = 0.004\nsamples = 2\nvalue = 0.9"] ;
853 -> 854 ;
855 [label="mse = 0.0\nsamples = 1\nvalue = 0.84"] ;
854 -> 855 ;
856 [label="mse = 0.0\nsamples = 1\nvalue = 0.96"] ;
854 -> 856 ;
857 [label="GunsAmmo <= 0.426\nmse = 0.0\nsamples = 2\nvalue = 1.205"] ;
853 -> 857 ;
858 [label="mse = 0.0\nsamples = 1\nvalue = 1.22"] ;
857 -> 858 ;
859 [label="mse = -0.0\nsamples = 1\nvalue = 1.19"] ;
857 -> 859 ;
860 [label="avg_own_est <= 0.51\nmse = 0.014\nsamples = 2\nvalue = 1.51"] ;
852 -> 860 ;
861 [label="mse = 0.0\nsamples = 1\nvalue = 1.39"] ;
860 -> 861 ;
862 [label="mse = 0.0\nsamples = 1\nvalue = 1.63"] ;
860 -> 862 ;
863 [label="Suicides <= 7.425\nmse = 0.835\nsamples = 9\nvalue = 3.325"] ;
847 -> 863 ;
864 [label="mse = 0.0\nsamples = 1\nvalue = 5.57"] ;
863 -> 864 ;
865 [label="waiting period <= 0.5\nmse = 0.231\nsamples = 8\nvalue = 3.045"] ;
863 -> 865 ;
866 [label="HuntLic <= 0.358\nmse = 0.109\nsamples = 7\nvalue = 2.905"] ;
865 -> 866 ;
867 [label="Permissive <= 0.5\nmse = 0.008\nsamples = 2\nvalue = 3.26"] ;
866 -> 867 ;
868 [label="mse = 0.0\nsamples = 1\nvalue = 3.17"] ;
867 -> 868 ;
869 [label="mse = 0.0\nsamples = 1\nvalue = 3.35"] ;
867 -> 869 ;
870 [label="avg_own_est <= 0.464\nmse = 0.078\nsamples = 5\nvalue = 2.764"] ;
866 -> 870 ;
871 [label="avg_own_est <= 0.435\nmse = 0.011\nsamples = 3\nvalue = 2.973"] ;
870 -> 871 ;
872 [label="mse = 0.0\nsamples = 1\nvalue = 3.12"] ;
871 -> 872 ;
873 [label="mse = 0.0\nsamples = 2\nvalue = 2.9"] ;
871 -> 873 ;
874 [label="Permissive <= 0.5\nmse = 0.015\nsamples = 2\nvalue = 2.449"] ;
870 -> 874 ;
875 [label="mse = 0.0\nsamples = 1\nvalue = 2.328"] ;
874 -> 875 ;
876 [label="mse = 0.0\nsamples = 1\nvalue = 2.57"] ;
874 -> 876 ;
877 [label="mse = 0.0\nsamples = 1\nvalue = 4.02"] ;
865 -> 877 ;
878 [label="HuntLic <= 0.239\nmse = 3.01\nsamples = 42\nvalue = 4.847"] ;
574 -> 878 ;
879 [label="HuntLic <= 0.123\nmse = 7.892\nsamples = 5\nvalue = 7.718"] ;
878 -> 879 ;
880 [label="mse = 0.0\nsamples = 1\nvalue = 2.13"] ;
879 -> 880 ;
881 [label="Implement <= 2.0\nmse = 0.107\nsamples = 4\nvalue = 9.115"] ;
879 -> 881 ;
882 [label="GunsAmmo <= -0.104\nmse = 0.038\nsamples = 2\nvalue = 9.405"] ;
881 -> 882 ;
883 [label="mse = 0.0\nsamples = 1\nvalue = 9.6"] ;
882 -> 883 ;
884 [label="mse = -0.0\nsamples = 1\nvalue = 9.21"] ;
882 -> 884 ;
885 [label="avg_own_est <= 0.294\nmse = 0.007\nsamples = 2\nvalue = 8.825"] ;
881 -> 885 ;
886 [label="mse = 0.0\nsamples = 1\nvalue = 8.91"] ;
885 -> 886 ;
887 [label="mse = 0.0\nsamples = 1\nvalue = 8.74"] ;
885 -> 887 ;
888 [label="HuntLic <= 0.424\nmse = 1.086\nsamples = 37\nvalue = 4.459"] ;
878 -> 888 ;
889 [label="GunsAmmo <= 0.141\nmse = 0.086\nsamples = 3\nvalue = 1.907"] ;
888 -> 889 ;
890 [label="mse = 0.0\nsamples = 1\nvalue = 2.32"] ;
889 -> 890 ;
891 [label="Implement <= 2.0\nmse = 0.002\nsamples = 2\nvalue = 1.7"] ;
889 -> 891 ;
892 [label="mse = 0.0\nsamples = 1\nvalue = 1.66"] ;
891 -> 892 ;
893 [label="mse = 0.0\nsamples = 1\nvalue = 1.74"] ;
891 -> 893 ;
894 [label="avg_own_est <= 0.483\nmse = 0.549\nsamples = 34\nvalue = 4.684"] ;
888 -> 894 ;
895 [label="permit <= 0.5\nmse = 0.283\nsamples = 33\nvalue = 4.593"] ;
894 -> 895 ;
896 [label="HuntLic <= 0.444\nmse = 0.125\nsamples = 17\nvalue = 4.272"] ;
895 -> 896 ;
897 [label="avg_own_est <= 0.346\nmse = 0.056\nsamples = 9\nvalue = 4.006"] ;
896 -> 897 ;
898 [label="GunsAmmo <= 0.045\nmse = 0.008\nsamples = 4\nvalue = 3.768"] ;
897 -> 898 ;
899 [label="Suicides <= 5.495\nmse = 0.003\nsamples = 3\nvalue = 3.723"] ;
898 -> 899 ;
900 [label="mse = 0.0\nsamples = 1\nvalue = 3.79"] ;
899 -> 900 ;
901 [label="background checks <= 2.0\nmse = 0.001\nsamples = 2\nvalue = 3.69"] ;
899 -> 901 ;
902 [label="mse = 0.0\nsamples = 1\nvalue = 3.66"] ;
901 -> 902 ;
903 [label="mse = -0.0\nsamples = 1\nvalue = 3.72"] ;
901 -> 903 ;
904 [label="mse = -0.0\nsamples = 1\nvalue = 3.9"] ;
898 -> 904 ;
905 [label="GunsAmmo <= 0.063\nmse = 0.012\nsamples = 5\nvalue = 4.196"] ;
897 -> 905 ;
906 [label="HuntLic <= 0.438\nmse = 0.005\nsamples = 3\nvalue = 4.123"] ;
905 -> 906 ;
907 [label="Modify <= 0.5\nmse = 0.002\nsamples = 2\nvalue = 4.17"] ;
906 -> 907 ;
908 [label="mse = 0.0\nsamples = 1\nvalue = 4.13"] ;
907 -> 908 ;
909 [label="mse = 0.0\nsamples = 1\nvalue = 4.21"] ;
907 -> 909 ;
910 [label="mse = -0.0\nsamples = 1\nvalue = 4.03"] ;
906 -> 910 ;
911 [label="Implement <= 3.5\nmse = 0.002\nsamples = 2\nvalue = 4.305"] ;
905 -> 911 ;
912 [label="mse = 0.0\nsamples = 1\nvalue = 4.26"] ;
911 -> 912 ;
913 [label="mse = 0.0\nsamples = 1\nvalue = 4.35"] ;
911 -> 913 ;
914 [label="Implement <= 1.0\nmse = 0.034\nsamples = 8\nvalue = 4.572"] ;
896 -> 914 ;
915 [label="HuntLic <= 0.448\nmse = 0.014\nsamples = 7\nvalue = 4.517"] ;
914 -> 915 ;
916 [label="HuntLic <= 0.446\nmse = 0.003\nsamples = 3\nvalue = 4.407"] ;
915 -> 916 ;
917 [label="avg_own_est <= 0.399\nmse = 0.001\nsamples = 2\nvalue = 4.37"] ;
916 -> 917 ;
918 [label="mse = 0.0\nsamples = 1\nvalue = 4.4"] ;
917 -> 918 ;
919 [label="mse = -0.0\nsamples = 1\nvalue = 4.34"] ;
917 -> 919 ;
920 [label="mse = 0.0\nsamples = 1\nvalue = 4.48"] ;
916 -> 920 ;
921 [label="Suicides <= 6.14\nmse = 0.006\nsamples = 4\nvalue = 4.6"] ;
915 -> 921 ;
922 [label="avg_own_est <= 0.343\nmse = 0.003\nsamples = 3\nvalue = 4.563"] ;
921 -> 922 ;
923 [label="mse = 0.0\nsamples = 1\nvalue = 4.64"] ;
922 -> 923 ;
924 [label="Suicides <= 5.89\nmse = 0.0\nsamples = 2\nvalue = 4.525"] ;
922 -> 924 ;
925 [label="mse = 0.0\nsamples = 1\nvalue = 4.52"] ;
924 -> 925 ;
926 [label="mse = -0.0\nsamples = 1\nvalue = 4.53"] ;
924 -> 926 ;
927 [label="mse = -0.0\nsamples = 1\nvalue = 4.71"] ;
921 -> 927 ;
928 [label="mse = 0.0\nsamples = 1\nvalue = 4.96"] ;
914 -> 928 ;
929 [label="GunsAmmo <= 0.029\nmse = 0.225\nsamples = 16\nvalue = 4.934"] ;
895 -> 929 ;
930 [label="HuntLic <= 0.442\nmse = 0.142\nsamples = 7\nvalue = 5.239"] ;
929 -> 930 ;
931 [label="mse = 0.0\nsamples = 1\nvalue = 4.4"] ;
930 -> 931 ;
932 [label="Suicides <= 5.705\nmse = 0.03\nsamples = 6\nvalue = 5.378"] ;
930 -> 932 ;
933 [label="avg_own_est <= 0.338\nmse = 0.004\nsamples = 3\nvalue = 5.22"] ;
932 -> 933 ;
934 [label="mse = 0.0\nsamples = 1\nvalue = 5.13"] ;
933 -> 934 ;
935 [label="avg_own_est <= 0.397\nmse = 0.001\nsamples = 2\nvalue = 5.265"] ;
933 -> 935 ;
936 [label="mse = 0.0\nsamples = 1\nvalue = 5.29"] ;
935 -> 936 ;
937 [label="mse = -0.0\nsamples = 1\nvalue = 5.24"] ;
935 -> 937 ;
938 [label="GunsAmmo <= -0.125\nmse = 0.004\nsamples = 3\nvalue = 5.537"] ;
932 -> 938 ;
939 [label="mse = 0.0\nsamples = 1\nvalue = 5.63"] ;
938 -> 939 ;
940 [label="GunsAmmo <= -0.009\nmse = 0.0\nsamples = 2\nvalue = 5.49"] ;
938 -> 940 ;
941 [label="mse = 0.0\nsamples = 1\nvalue = 5.48"] ;
940 -> 941 ;
942 [label="mse = -0.0\nsamples = 1\nvalue = 5.5"] ;
940 -> 942 ;
943 [label="GunsAmmo <= 0.173\nmse = 0.161\nsamples = 9\nvalue = 4.697"] ;
929 -> 943 ;
944 [label="Suicides <= 6.77\nmse = 0.065\nsamples = 2\nvalue = 4.135"] ;
943 -> 944 ;
945 [label="mse = 0.0\nsamples = 1\nvalue = 4.39"] ;
944 -> 945 ;
946 [label="mse = -0.0\nsamples = 1\nvalue = 3.88"] ;
944 -> 946 ;
947 [label="GunsAmmo <= 0.244\nmse = 0.073\nsamples = 7\nvalue = 4.857"] ;
943 -> 947 ;
948 [label="avg_own_est <= 0.457\nmse = 0.062\nsamples = 5\nvalue = 4.75"] ;
947 -> 948 ;
949 [label="HuntLic <= 0.435\nmse = 0.01\nsamples = 2\nvalue = 5.02"] ;
948 -> 949 ;
950 [label="mse = 0.0\nsamples = 1\nvalue = 5.12"] ;
949 -> 950 ;
951 [label="mse = 0.0\nsamples = 1\nvalue = 4.92"] ;
949 -> 951 ;
952 [label="Suicides <= 6.61\nmse = 0.015\nsamples = 3\nvalue = 4.57"] ;
948 -> 952 ;
953 [label="mse = 0.0\nsamples = 1\nvalue = 4.74"] ;
952 -> 953 ;
954 [label="Suicides <= 7.005\nmse = 0.001\nsamples = 2\nvalue = 4.485"] ;
952 -> 954 ;
955 [label="mse = 0.0\nsamples = 1\nvalue = 4.46"] ;
954 -> 955 ;
956 [label="mse = 0.0\nsamples = 1\nvalue = 4.51"] ;
954 -> 956 ;
957 [label="Restrictive <= 0.5\nmse = 0.0\nsamples = 2\nvalue = 5.125"] ;
947 -> 957 ;
958 [label="mse = 0.0\nsamples = 1\nvalue = 5.13"] ;
957 -> 958 ;
959 [label="mse = 0.0\nsamples = 1\nvalue = 5.12"] ;
957 -> 959 ;
960 [label="mse = -0.0\nsamples = 1\nvalue = 7.69"] ;
894 -> 960 ;
961 [label="GunsAmmo <= -0.129\nmse = 7.087\nsamples = 298\nvalue = 5.501"] ;
1 -> 961 ;
962 [label="GunsAmmo <= -0.984\nmse = 8.362\nsamples = 112\nvalue = 7.398"] ;
961 -> 962 ;
963 [label="HuntLic <= 0.278\nmse = 8.734\nsamples = 9\nvalue = 12.214"] ;
962 -> 963 ;
964 [label="Suicides <= 9.185\nmse = 0.141\nsamples = 2\nvalue = 7.715"] ;
963 -> 964 ;
965 [label="mse = 0.0\nsamples = 1\nvalue = 7.34"] ;
964 -> 965 ;
966 [label="mse = 0.0\nsamples = 1\nvalue = 8.09"] ;
964 -> 966 ;
967 [label="HuntLic <= 0.337\nmse = 3.752\nsamples = 7\nvalue = 13.5"] ;
963 -> 967 ;
968 [label="GunsAmmo <= -1.17\nmse = 1.094\nsamples = 3\nvalue = 11.8"] ;
967 -> 968 ;
969 [label="mse = 0.0\nsamples = 1\nvalue = 10.33"] ;
968 -> 969 ;
970 [label="minimum age <= 0.5\nmse = 0.021\nsamples = 2\nvalue = 12.535"] ;
968 -> 970 ;
971 [label="mse = 0.0\nsamples = 1\nvalue = 12.68"] ;
970 -> 971 ;
972 [label="mse = -0.0\nsamples = 1\nvalue = 12.39"] ;
970 -> 972 ;
973 [label="GunsAmmo <= -1.089\nmse = 1.952\nsamples = 4\nvalue = 14.775"] ;
967 -> 973 ;
974 [label="avg_own_est <= 0.617\nmse = 0.012\nsamples = 2\nvalue = 13.38"] ;
973 -> 974 ;
975 [label="mse = 0.0\nsamples = 1\nvalue = 13.27"] ;
974 -> 975 ;
976 [label="mse = 0.0\nsamples = 1\nvalue = 13.49"] ;
974 -> 976 ;
977 [label="Suicides <= 9.795\nmse = 0.0\nsamples = 2\nvalue = 16.17"] ;
973 -> 977 ;
978 [label="mse = 0.0\nsamples = 1\nvalue = 16.15"] ;
977 -> 978 ;
979 [label="mse = -0.0\nsamples = 1\nvalue = 16.19"] ;
977 -> 979 ;
980 [label="Suicides <= 10.82\nmse = 6.125\nsamples = 103\nvalue = 6.977"] ;
962 -> 980 ;
981 [label="HuntLic <= 0.367\nmse = 5.068\nsamples = 99\nvalue = 7.202"] ;
980 -> 981 ;
982 [label="avg_own_est <= 0.559\nmse = 4.214\nsamples = 83\nvalue = 7.555"] ;
981 -> 982 ;
983 [label="Suicides <= 9.025\nmse = 3.422\nsamples = 59\nvalue = 7.031"] ;
982 -> 983 ;
984 [label="Repeal <= 0.5\nmse = 2.827\nsamples = 38\nvalue = 6.618"] ;
983 -> 984 ;
985 [label="HuntLic <= 0.238\nmse = 2.047\nsamples = 36\nvalue = 6.778"] ;
984 -> 985 ;
986 [label="avg_own_est <= 0.428\nmse = 2.045\nsamples = 9\nvalue = 7.617"] ;
985 -> 986 ;
987 [label="HuntLic <= 0.152\nmse = 0.521\nsamples = 4\nvalue = 6.24"] ;
986 -> 987 ;
988 [label="Suicides <= 8.225\nmse = 0.053\nsamples = 2\nvalue = 5.59"] ;
987 -> 988 ;
989 [label="mse = 0.0\nsamples = 1\nvalue = 5.36"] ;
988 -> 989 ;
990 [label="mse = 0.0\nsamples = 1\nvalue = 5.82"] ;
988 -> 990 ;
991 [label="Modify <= 0.5\nmse = 0.144\nsamples = 2\nvalue = 6.89"] ;
987 -> 991 ;
992 [label="mse = 0.0\nsamples = 1\nvalue = 6.51"] ;
991 -> 992 ;
993 [label="mse = 0.0\nsamples = 1\nvalue = 7.27"] ;
991 -> 993 ;
994 [label="GunsAmmo <= -0.356\nmse = 0.536\nsamples = 5\nvalue = 8.718"] ;
986 -> 994 ;
995 [label="HuntLic <= 0.237\nmse = 0.112\nsamples = 3\nvalue = 9.25"] ;
994 -> 995 ;
996 [label="GunsAmmo <= -0.44\nmse = 0.01\nsamples = 2\nvalue = 9.48"] ;
995 -> 996 ;
997 [label="mse = 0.0\nsamples = 1\nvalue = 9.38"] ;
996 -> 997 ;
998 [label="mse = 0.0\nsamples = 1\nvalue = 9.58"] ;
996 -> 998 ;
999 [label="mse = 0.0\nsamples = 1\nvalue = 8.79"] ;
995 -> 999 ;
1000 [label="GunsAmmo <= -0.259\nmse = 0.109\nsamples = 2\nvalue = 7.92"] ;
994 -> 1000 ;
1001 [label="mse = 0.0\nsamples = 1\nvalue = 7.59"] ;
1000 -> 1001 ;
1002 [label="mse = 0.0\nsamples = 1\nvalue = 8.25"] ;
1000 -> 1002 ;
1003 [label="Suicides <= 8.145\nmse = 1.735\nsamples = 27\nvalue = 6.498"] ;
985 -> 1003 ;
1004 [label="HuntLic <= 0.338\nmse = 0.278\nsamples = 5\nvalue = 5.398"] ;
1003 -> 1004 ;
1005 [label="Suicides <= 7.99\nmse = 0.041\nsamples = 4\nvalue = 5.15"] ;
1004 -> 1005 ;
1006 [label="mse = 0.0\nsamples = 1\nvalue = 5.46"] ;
1005 -> 1006 ;
1007 [label="HuntLic <= 0.256\nmse = 0.011\nsamples = 3\nvalue = 5.047"] ;
1005 -> 1007 ;
1008 [label="mse = 0.0\nsamples = 1\nvalue = 4.9"] ;
1007 -> 1008 ;
1009 [label="HuntLic <= 0.297\nmse = 0.001\nsamples = 2\nvalue = 5.12"] ;
1007 -> 1009 ;
1010 [label="mse = 0.0\nsamples = 1\nvalue = 5.15"] ;
1009 -> 1010 ;
1011 [label="mse = -0.0\nsamples = 1\nvalue = 5.09"] ;
1009 -> 1011 ;
1012 [label="mse = -0.0\nsamples = 1\nvalue = 6.39"] ;
1004 -> 1012 ;
1013 [label="avg_own_est <= 0.552\nmse = 1.728\nsamples = 22\nvalue = 6.748"] ;
1003 -> 1013 ;
1014 [label="GunsAmmo <= -0.243\nmse = 1.484\nsamples = 21\nvalue = 6.87"] ;
1013 -> 1014 ;
1015 [label="GunsAmmo <= -0.673\nmse = 1.582\nsamples = 14\nvalue = 7.219"] ;
1014 -> 1015 ;
1016 [label="Suicides <= 8.85\nmse = 0.869\nsamples = 3\nvalue = 5.937"] ;
1015 -> 1016 ;
1017 [label="Suicides <= 8.49\nmse = 0.048\nsamples = 2\nvalue = 5.29"] ;
1016 -> 1017 ;
1018 [label="mse = 0.0\nsamples = 1\nvalue = 5.07"] ;
1017 -> 1018 ;
1019 [label="mse = -0.0\nsamples = 1\nvalue = 5.51"] ;
1017 -> 1019 ;
1020 [label="mse = 0.0\nsamples = 1\nvalue = 7.23"] ;
1016 -> 1020 ;
1021 [label="GunsAmmo <= -0.562\nmse = 1.205\nsamples = 11\nvalue = 7.569"] ;
1015 -> 1021 ;
1022 [label="HuntLic <= 0.36\nmse = 1.448\nsamples = 5\nvalue = 8.194"] ;
1021 -> 1022 ;
1023 [label="GunsAmmo <= -0.623\nmse = 0.403\nsamples = 2\nvalue = 9.525"] ;
1022 -> 1023 ;
1024 [label="mse = 0.0\nsamples = 1\nvalue = 10.16"] ;
1023 -> 1024 ;
1025 [label="mse = -0.0\nsamples = 1\nvalue = 8.89"] ;
1023 -> 1025 ;
1026 [label="Implement <= 0.5\nmse = 0.176\nsamples = 3\nvalue = 7.307"] ;
1022 -> 1026 ;
1027 [label="mse = 0.0\nsamples = 1\nvalue = 6.72"] ;
1026 -> 1027 ;
1028 [label="HuntLic <= 0.364\nmse = 0.006\nsamples = 2\nvalue = 7.6"] ;
1026 -> 1028 ;
1029 [label="mse = 0.0\nsamples = 1\nvalue = 7.52"] ;
1028 -> 1029 ;
1030 [label="mse = 0.0\nsamples = 1\nvalue = 7.68"] ;
1028 -> 1030 ;
1031 [label="avg_own_est <= 0.537\nmse = 0.406\nsamples = 6\nvalue = 7.048"] ;
1021 -> 1031 ;
1032 [label="HuntLic <= 0.264\nmse = 0.295\nsamples = 4\nvalue = 6.725"] ;
1031 -> 1032 ;
1033 [label="mse = 0.0\nsamples = 1\nvalue = 7.42"] ;
1032 -> 1033 ;
1034 [label="avg_own_est <= 0.537\nmse = 0.178\nsamples = 3\nvalue = 6.493"] ;
1032 -> 1034 ;
1035 [label="HuntLic <= 0.314\nmse = 0.0\nsamples = 2\nvalue = 6.195"] ;
1034 -> 1035 ;
1036 [label="mse = 0.0\nsamples = 1\nvalue = 6.18"] ;
1035 -> 1036 ;
1037 [label="mse = -0.0\nsamples = 1\nvalue = 6.21"] ;
1035 -> 1037 ;
1038 [label="mse = 0.0\nsamples = 1\nvalue = 7.09"] ;
1034 -> 1038 ;
1039 [label="GunsAmmo <= -0.334\nmse = 0.002\nsamples = 2\nvalue = 7.695"] ;
1031 -> 1039 ;
1040 [label="mse = 0.0\nsamples = 1\nvalue = 7.65"] ;
1039 -> 1040 ;
1041 [label="mse = 0.0\nsamples = 1\nvalue = 7.74"] ;
1039 -> 1041 ;
1042 [label="HuntLic <= 0.332\nmse = 0.556\nsamples = 7\nvalue = 6.171"] ;
1014 -> 1042 ;
1043 [label="HuntLic <= 0.295\nmse = 0.091\nsamples = 5\nvalue = 6.614"] ;
1042 -> 1043 ;
1044 [label="Suicides <= 8.65\nmse = 0.039\nsamples = 4\nvalue = 6.492"] ;
1043 -> 1044 ;
1045 [label="GunsAmmo <= -0.159\nmse = 0.017\nsamples = 3\nvalue = 6.587"] ;
1044 -> 1045 ;
1046 [label="Implement <= 2.0\nmse = 0.0\nsamples = 2\nvalue = 6.495"] ;
1045 -> 1046 ;
1047 [label="mse = 0.0\nsamples = 1\nvalue = 6.51"] ;
1046 -> 1047 ;
1048 [label="mse = 0.0\nsamples = 1\nvalue = 6.48"] ;
1046 -> 1048 ;
1049 [label="mse = -0.0\nsamples = 1\nvalue = 6.77"] ;
1045 -> 1049 ;
1050 [label="mse = -0.0\nsamples = 1\nvalue = 6.21"] ;
1044 -> 1050 ;
1051 [label="mse = -0.0\nsamples = 1\nvalue = 7.1"] ;
1043 -> 1051 ;
1052 [label="Suicides <= 8.38\nmse = 0.007\nsamples = 2\nvalue = 5.065"] ;
1042 -> 1052 ;
1053 [label="mse = 0.0\nsamples = 1\nvalue = 5.15"] ;
1052 -> 1053 ;
1054 [label="mse = -0.0\nsamples = 1\nvalue = 4.98"] ;
1052 -> 1054 ;
1055 [label="mse = 0.0\nsamples = 1\nvalue = 4.19"] ;
1013 -> 1055 ;
1056 [label="avg_own_est <= 0.498\nmse = 8.122\nsamples = 2\nvalue = 3.74"] ;
984 -> 1056 ;
1057 [label="mse = 0.0\nsamples = 1\nvalue = 6.59"] ;
1056 -> 1057 ;
1058 [label="mse = -0.0\nsamples = 1\nvalue = 0.89"] ;
1056 -> 1058 ;
1059 [label="GunsAmmo <= -0.5\nmse = 3.631\nsamples = 21\nvalue = 7.779"] ;
983 -> 1059 ;
1060 [label="avg_own_est <= 0.434\nmse = 4.225\nsamples = 9\nvalue = 8.811"] ;
1059 -> 1060 ;
1061 [label="mse = 0.0\nsamples = 1\nvalue = 13.43"] ;
1060 -> 1061 ;
1062 [label="HuntLic <= 0.302\nmse = 1.754\nsamples = 8\nvalue = 8.234"] ;
1060 -> 1062 ;
1063 [label="background checks <= 0.5\nmse = 1.406\nsamples = 5\nvalue = 7.534"] ;
1062 -> 1063 ;
1064 [label="Modify <= 0.5\nmse = 0.11\nsamples = 4\nvalue = 6.96"] ;
1063 -> 1064 ;
1065 [label="waiting period <= 0.5\nmse = 0.031\nsamples = 3\nvalue = 7.13"] ;
1064 -> 1065 ;
1066 [label="GunsAmmo <= -0.734\nmse = 0.01\nsamples = 2\nvalue = 7.02"] ;
1065 -> 1066 ;
1067 [label="mse = 0.0\nsamples = 1\nvalue = 6.92"] ;
1066 -> 1067 ;
1068 [label="mse = 0.0\nsamples = 1\nvalue = 7.12"] ;
1066 -> 1068 ;
1069 [label="mse = -0.0\nsamples = 1\nvalue = 7.35"] ;
1065 -> 1069 ;
1070 [label="mse = 0.0\nsamples = 1\nvalue = 6.45"] ;
1064 -> 1070 ;
1071 [label="mse = 0.0\nsamples = 1\nvalue = 9.83"] ;
1063 -> 1071 ;
1072 [label="Suicides <= 9.535\nmse = 0.157\nsamples = 3\nvalue = 9.4"] ;
1062 -> 1072 ;
1073 [label="avg_own_est <= 0.494\nmse = 0.0\nsamples = 2\nvalue = 9.12"] ;
1072 -> 1073 ;
1074 [label="mse = 0.0\nsamples = 1\nvalue = 9.13"] ;
1073 -> 1074 ;
1075 [label="mse = -0.0\nsamples = 1\nvalue = 9.11"] ;
1073 -> 1075 ;
1076 [label="mse = 0.0\nsamples = 1\nvalue = 9.96"] ;
1072 -> 1076 ;
1077 [label="HuntLic <= 0.27\nmse = 1.787\nsamples = 12\nvalue = 7.005"] ;
1059 -> 1077 ;
1078 [label="HuntLic <= 0.25\nmse = 0.276\nsamples = 4\nvalue = 6.08"] ;
1077 -> 1078 ;
1079 [label="Suicides <= 9.645\nmse = 0.0\nsamples = 2\nvalue = 6.565"] ;
1078 -> 1079 ;
1080 [label="mse = 0.0\nsamples = 1\nvalue = 6.58"] ;
1079 -> 1080 ;
1081 [label="mse = 0.0\nsamples = 1\nvalue = 6.55"] ;
1079 -> 1081 ;
1082 [label="Restrictive <= 0.5\nmse = 0.081\nsamples = 2\nvalue = 5.595"] ;
1078 -> 1082 ;
1083 [label="mse = 0.0\nsamples = 1\nvalue = 5.88"] ;
1082 -> 1083 ;
1084 [label="mse = 0.0\nsamples = 1\nvalue = 5.31"] ;
1082 -> 1084 ;
1085 [label="avg_own_est <= 0.496\nmse = 1.9\nsamples = 8\nvalue = 7.467"] ;
1077 -> 1085 ;
1086 [label="avg_own_est <= 0.416\nmse = 0.453\nsamples = 5\nvalue = 6.664"] ;
1085 -> 1086 ;
1087 [label="mse = 0.0\nsamples = 1\nvalue = 5.57"] ;
1086 -> 1087 ;
1088 [label="GunsAmmo <= -0.297\nmse = 0.192\nsamples = 4\nvalue = 6.938"] ;
1086 -> 1088 ;
1089 [label="GunsAmmo <= -0.437\nmse = 0.053\nsamples = 2\nvalue = 7.32"] ;
1088 -> 1089 ;
1090 [label="mse = 0.0\nsamples = 1\nvalue = 7.09"] ;
1089 -> 1090 ;
1091 [label="mse = -0.0\nsamples = 1\nvalue = 7.55"] ;
1089 -> 1091 ;
1092 [label="avg_own_est <= 0.479\nmse = 0.038\nsamples = 2\nvalue = 6.555"] ;
1088 -> 1092 ;
1093 [label="mse = 0.0\nsamples = 1\nvalue = 6.36"] ;
1092 -> 1093 ;
1094 [label="mse = 0.0\nsamples = 1\nvalue = 6.75"] ;
1092 -> 1094 ;
1095 [label="HuntLic <= 0.278\nmse = 1.444\nsamples = 3\nvalue = 8.807"] ;
1085 -> 1095 ;
1096 [label="mse = 0.0\nsamples = 1\nvalue = 10.43"] ;
1095 -> 1096 ;
1097 [label="minimum age <= 0.5\nmse = 0.189\nsamples = 2\nvalue = 7.995"] ;
1095 -> 1097 ;
1098 [label="mse = 0.0\nsamples = 1\nvalue = 7.56"] ;
1097 -> 1098 ;
1099 [label="mse = 0.0\nsamples = 1\nvalue = 8.43"] ;
1097 -> 1099 ;
1100 [label="GunsAmmo <= -0.572\nmse = 3.832\nsamples = 24\nvalue = 8.841"] ;
982 -> 1100 ;
1101 [label="GunsAmmo <= -0.826\nmse = 1.957\nsamples = 8\nvalue = 10.519"] ;
1100 -> 1101 ;
1102 [label="HuntLic <= 0.355\nmse = 0.64\nsamples = 2\nvalue = 12.47"] ;
1101 -> 1102 ;
1103 [label="mse = 0.0\nsamples = 1\nvalue = 13.27"] ;
1102 -> 1103 ;
1104 [label="mse = 0.0\nsamples = 1\nvalue = 11.67"] ;
1102 -> 1104 ;
1105 [label="avg_own_est <= 0.568\nmse = 0.704\nsamples = 6\nvalue = 9.868"] ;
1101 -> 1105 ;
1106 [label="mse = 0.0\nsamples = 1\nvalue = 11.65"] ;
1105 -> 1106 ;
1107 [label="GunsAmmo <= -0.815\nmse = 0.083\nsamples = 5\nvalue = 9.512"] ;
1105 -> 1107 ;
1108 [label="mse = 0.0\nsamples = 1\nvalue = 9.08"] ;
1107 -> 1108 ;
1109 [label="GunsAmmo <= -0.656\nmse = 0.046\nsamples = 4\nvalue = 9.62"] ;
1107 -> 1109 ;
1110 [label="Suicides <= 9.51\nmse = 0.006\nsamples = 2\nvalue = 9.82"] ;
1109 -> 1110 ;
1111 [label="mse = 0.0\nsamples = 1\nvalue = 9.74"] ;
1110 -> 1111 ;
1112 [label="mse = 0.0\nsamples = 1\nvalue = 9.9"] ;
1110 -> 1112 ;
1113 [label="Suicides <= 9.105\nmse = 0.005\nsamples = 2\nvalue = 9.42"] ;
1109 -> 1113 ;
1114 [label="mse = 0.0\nsamples = 1\nvalue = 9.35"] ;
1113 -> 1114 ;
1115 [label="mse = -0.0\nsamples = 1\nvalue = 9.49"] ;
1113 -> 1115 ;
1116 [label="HuntLic <= 0.343\nmse = 2.658\nsamples = 16\nvalue = 8.002"] ;
1100 -> 1116 ;
1117 [label="HuntLic <= 0.29\nmse = 0.616\nsamples = 10\nvalue = 8.847"] ;
1116 -> 1117 ;
1118 [label="avg_own_est <= 0.57\nmse = 0.262\nsamples = 7\nvalue = 8.417"] ;
1117 -> 1118 ;
1119 [label="avg_own_est <= 0.567\nmse = 0.002\nsamples = 2\nvalue = 9.115"] ;
1118 -> 1119 ;
1120 [label="mse = 0.0\nsamples = 1\nvalue = 9.07"] ;
1119 -> 1120 ;
1121 [label="mse = -0.0\nsamples = 1\nvalue = 9.16"] ;
1119 -> 1121 ;
1122 [label="Suicides <= 9.465\nmse = 0.093\nsamples = 5\nvalue = 8.138"] ;
1118 -> 1122 ;
1123 [label="GunsAmmo <= -0.316\nmse = 0.012\nsamples = 4\nvalue = 8.282"] ;
1122 -> 1123 ;
1124 [label="Implement <= 1.0\nmse = 0.004\nsamples = 2\nvalue = 8.185"] ;
1123 -> 1124 ;
1125 [label="mse = 0.0\nsamples = 1\nvalue = 8.25"] ;
1124 -> 1125 ;
1126 [label="mse = 0.0\nsamples = 1\nvalue = 8.12"] ;
1124 -> 1126 ;
1127 [label="Suicides <= 8.97\nmse = 0.001\nsamples = 2\nvalue = 8.38"] ;
1123 -> 1127 ;
1128 [label="mse = 0.0\nsamples = 1\nvalue = 8.35"] ;
1127 -> 1128 ;
1129 [label="mse = 0.0\nsamples = 1\nvalue = 8.41"] ;
1127 -> 1129 ;
1130 [label="mse = -0.0\nsamples = 1\nvalue = 7.56"] ;
1122 -> 1130 ;
1131 [label="HuntLic <= 0.318\nmse = 0.004\nsamples = 3\nvalue = 9.85"] ;
1117 -> 1131 ;
1132 [label="mse = 0.0\nsamples = 1\nvalue = 9.94"] ;
1131 -> 1132 ;
1133 [label="GunsAmmo <= -0.376\nmse = 0.0\nsamples = 2\nvalue = 9.805"] ;
1131 -> 1133 ;
1134 [label="mse = 0.0\nsamples = 1\nvalue = 9.82"] ;
1133 -> 1134 ;
1135 [label="mse = 0.0\nsamples = 1\nvalue = 9.79"] ;
1133 -> 1135 ;
1136 [label="Suicides <= 9.825\nmse = 2.893\nsamples = 6\nvalue = 6.595"] ;
1116 -> 1136 ;
1137 [label="Suicides <= 9.74\nmse = 0.77\nsamples = 3\nvalue = 8.013"] ;
1136 -> 1137 ;
1138 [label="HuntLic <= 0.365\nmse = 0.141\nsamples = 2\nvalue = 8.595"] ;
1137 -> 1138 ;
1139 [label="mse = 0.0\nsamples = 1\nvalue = 8.22"] ;
1138 -> 1139 ;
1140 [label="mse = 0.0\nsamples = 1\nvalue = 8.97"] ;
1138 -> 1140 ;
1141 [label="mse = -0.0\nsamples = 1\nvalue = 6.85"] ;
1137 -> 1141 ;
1142 [label="GunsAmmo <= -0.371\nmse = 0.991\nsamples = 3\nvalue = 5.177"] ;
1136 -> 1142 ;
1143 [label="Suicides <= 10.17\nmse = 0.093\nsamples = 2\nvalue = 4.495"] ;
1142 -> 1143 ;
1144 [label="mse = 0.0\nsamples = 1\nvalue = 4.19"] ;
1143 -> 1144 ;
1145 [label="mse = 0.0\nsamples = 1\nvalue = 4.8"] ;
1143 -> 1145 ;
1146 [label="mse = 0.0\nsamples = 1\nvalue = 6.54"] ;
1142 -> 1146 ;
1147 [label="GunsAmmo <= -0.477\nmse = 5.513\nsamples = 16\nvalue = 5.374"] ;
981 -> 1147 ;
1148 [label="HuntLic <= 0.369\nmse = 2.96\nsamples = 8\nvalue = 6.831"] ;
1147 -> 1148 ;
1149 [label="mse = 0.0\nsamples = 1\nvalue = 3.48"] ;
1148 -> 1149 ;
1150 [label="avg_own_est <= 0.588\nmse = 1.549\nsamples = 7\nvalue = 7.31"] ;
1148 -> 1150 ;
1151 [label="Suicides <= 10.25\nmse = 0.369\nsamples = 6\nvalue = 7.763"] ;
1150 -> 1151 ;
1152 [label="Restrictive <= 1.0\nmse = 0.07\nsamples = 5\nvalue = 7.514"] ;
1151 -> 1152 ;
1153 [label="HuntLic <= 0.374\nmse = 0.014\nsamples = 4\nvalue = 7.635"] ;
1152 -> 1153 ;
1154 [label="mse = 0.0\nsamples = 1\nvalue = 7.83"] ;
1153 -> 1154 ;
1155 [label="Suicides <= 9.695\nmse = 0.002\nsamples = 3\nvalue = 7.57"] ;
1153 -> 1155 ;
1156 [label="avg_own_est <= 0.52\nmse = 0.0\nsamples = 2\nvalue = 7.6"] ;
1155 -> 1156 ;
1157 [label="mse = 0.0\nsamples = 1\nvalue = 7.62"] ;
1156 -> 1157 ;
1158 [label="mse = 0.0\nsamples = 1\nvalue = 7.58"] ;
1156 -> 1158 ;
1159 [label="mse = -0.0\nsamples = 1\nvalue = 7.51"] ;
1155 -> 1159 ;
1160 [label="mse = 0.0\nsamples = 1\nvalue = 7.03"] ;
1152 -> 1160 ;
1161 [label="mse = 0.0\nsamples = 1\nvalue = 9.01"] ;
1151 -> 1161 ;
1162 [label="mse = -0.0\nsamples = 1\nvalue = 4.59"] ;
1150 -> 1162 ;
1163 [label="GunsAmmo <= -0.202\nmse = 3.818\nsamples = 8\nvalue = 3.916"] ;
1147 -> 1163 ;
1164 [label="Implement <= 1.0\nmse = 0.16\nsamples = 3\nvalue = 1.54"] ;
1163 -> 1164 ;
1165 [label="avg_own_est <= 0.51\nmse = 0.053\nsamples = 2\nvalue = 1.29"] ;
1164 -> 1165 ;
1166 [label="mse = 0.0\nsamples = 1\nvalue = 1.52"] ;
1165 -> 1166 ;
1167 [label="mse = 0.0\nsamples = 1\nvalue = 1.06"] ;
1165 -> 1167 ;
1168 [label="mse = -0.0\nsamples = 1\nvalue = 2.04"] ;
1164 -> 1168 ;
1169 [label="Modify <= 0.5\nmse = 0.592\nsamples = 5\nvalue = 5.342"] ;
1163 -> 1169 ;
1170 [label="HuntLic <= 0.39\nmse = 0.291\nsamples = 4\nvalue = 5.042"] ;
1169 -> 1170 ;
1171 [label="mse = 0.0\nsamples = 1\nvalue = 4.15"] ;
1170 -> 1171 ;
1172 [label="avg_own_est <= 0.419\nmse = 0.034\nsamples = 3\nvalue = 5.34"] ;
1170 -> 1172 ;
1173 [label="HuntLic <= 0.445\nmse = 0.0\nsamples = 2\nvalue = 5.47"] ;
1172 -> 1173 ;
1174 [label="mse = 0.0\nsamples = 1\nvalue = 5.49"] ;
1173 -> 1174 ;
1175 [label="mse = -0.0\nsamples = 1\nvalue = 5.45"] ;
1173 -> 1175 ;
1176 [label="mse = -0.0\nsamples = 1\nvalue = 5.08"] ;
1172 -> 1176 ;
1177 [label="mse = 0.0\nsamples = 1\nvalue = 6.54"] ;
1169 -> 1177 ;
1178 [label="GunsAmmo <= -0.407\nmse = 0.032\nsamples = 4\nvalue = 1.41"] ;
980 -> 1178 ;
1179 [label="avg_own_est <= 0.495\nmse = 0.004\nsamples = 2\nvalue = 1.58"] ;
1178 -> 1179 ;
1180 [label="mse = 0.0\nsamples = 1\nvalue = 1.52"] ;
1179 -> 1180 ;
1181 [label="mse = -0.0\nsamples = 1\nvalue = 1.64"] ;
1179 -> 1181 ;
1182 [label="HuntLic <= 0.34\nmse = 0.003\nsamples = 2\nvalue = 1.24"] ;
1178 -> 1182 ;
1183 [label="mse = 0.0\nsamples = 1\nvalue = 1.29"] ;
1182 -> 1183 ;
1184 [label="mse = 0.0\nsamples = 1\nvalue = 1.19"] ;
1182 -> 1184 ;
1185 [label="Suicides <= 11.795\nmse = 2.849\nsamples = 186\nvalue = 4.359"] ;
961 -> 1185 ;
1186 [label="GunsAmmo <= 0.322\nmse = 2.585\nsamples = 170\nvalue = 4.166"] ;
1185 -> 1186 ;
1187 [label="universl <= 0.5\nmse = 2.492\nsamples = 130\nvalue = 4.433"] ;
1186 -> 1187 ;
1188 [label="Suicides <= 8.5\nmse = 2.332\nsamples = 125\nvalue = 4.344"] ;
1187 -> 1188 ;
1189 [label="HuntLic <= 0.324\nmse = 2.9\nsamples = 19\nvalue = 3.375"] ;
1188 -> 1189 ;
1190 [label="GunsAmmo <= 0.217\nmse = 1.11\nsamples = 9\nvalue = 2.001"] ;
1189 -> 1190 ;
1191 [label="GunsAmmo <= 0.13\nmse = 0.082\nsamples = 7\nvalue = 1.454"] ;
1190 -> 1191 ;
1192 [label="HuntLic <= 0.308\nmse = 0.017\nsamples = 5\nvalue = 1.288"] ;
1191 -> 1192 ;
1193 [label="Suicides <= 8.375\nmse = 0.003\nsamples = 4\nvalue = 1.228"] ;
1192 -> 1193 ;
1194 [label="mse = 0.0\nsamples = 2\nvalue = 1.17"] ;
1193 -> 1194 ;
1195 [label="GunsAmmo <= 0.062\nmse = 0.0\nsamples = 2\nvalue = 1.285"] ;
1193 -> 1195 ;
1196 [label="mse = 0.0\nsamples = 1\nvalue = 1.29"] ;
1195 -> 1196 ;
1197 [label="mse = -0.0\nsamples = 1\nvalue = 1.28"] ;
1195 -> 1197 ;
1198 [label="mse = -0.0\nsamples = 1\nvalue = 1.53"] ;
1192 -> 1198 ;
1199 [label="HuntLic <= 0.293\nmse = 0.001\nsamples = 2\nvalue = 1.87"] ;
1191 -> 1199 ;
1200 [label="mse = 0.0\nsamples = 1\nvalue = 1.9"] ;
1199 -> 1200 ;
1201 [label="mse = -0.0\nsamples = 1\nvalue = 1.84"] ;
1199 -> 1201 ;
1202 [label="GunsAmmo <= 0.252\nmse = 0.001\nsamples = 2\nvalue = 3.915"] ;
1190 -> 1202 ;
1203 [label="mse = 0.0\nsamples = 1\nvalue = 3.89"] ;
1202 -> 1203 ;
1204 [label="mse = 0.0\nsamples = 1\nvalue = 3.94"] ;
1202 -> 1204 ;
1205 [label="HuntLic <= 0.386\nmse = 1.285\nsamples = 10\nvalue = 4.611"] ;
1189 -> 1205 ;
1206 [label="Suicides <= 8.195\nmse = 0.307\nsamples = 6\nvalue = 5.285"] ;
1205 -> 1206 ;
1207 [label="GunsAmmo <= 0.092\nmse = 0.006\nsamples = 2\nvalue = 4.58"] ;
1206 -> 1207 ;
1208 [label="mse = 0.0\nsamples = 1\nvalue = 4.5"] ;
1207 -> 1208 ;
1209 [label="mse = 0.0\nsamples = 1\nvalue = 4.66"] ;
1207 -> 1209 ;
1210 [label="HuntLic <= 0.366\nmse = 0.085\nsamples = 4\nvalue = 5.638"] ;
1206 -> 1210 ;
1211 [label="Implement <= 0.5\nmse = 0.02\nsamples = 3\nvalue = 5.79"] ;
1210 -> 1211 ;
1212 [label="mse = 0.0\nsamples = 1\nvalue = 5.61"] ;
1211 -> 1212 ;
1213 [label="Implement <= 1.5\nmse = 0.006\nsamples = 2\nvalue = 5.88"] ;
1211 -> 1213 ;
1214 [label="mse = 0.0\nsamples = 1\nvalue = 5.96"] ;
1213 -> 1214 ;
1215 [label="mse = -0.0\nsamples = 1\nvalue = 5.8"] ;
1213 -> 1215 ;
1216 [label="mse = -0.0\nsamples = 1\nvalue = 5.18"] ;
1210 -> 1216 ;
1217 [label="avg_own_est <= 0.451\nmse = 1.048\nsamples = 4\nvalue = 3.6"] ;
1205 -> 1217 ;
1218 [label="mse = 0.0\nsamples = 1\nvalue = 5.23"] ;
1217 -> 1218 ;
1219 [label="prohibited possessor <= 0.5\nmse = 0.217\nsamples = 3\nvalue = 3.057"] ;
1217 -> 1219 ;
1220 [label="Suicides <= 8.145\nmse = 0.002\nsamples = 2\nvalue = 3.385"] ;
1219 -> 1220 ;
1221 [label="mse = 0.0\nsamples = 1\nvalue = 3.34"] ;
1220 -> 1221 ;
1222 [label="mse = 0.0\nsamples = 1\nvalue = 3.43"] ;
1220 -> 1222 ;
1223 [label="mse = 0.0\nsamples = 1\nvalue = 2.4"] ;
1219 -> 1223 ;
1224 [label="GunsAmmo <= -0.077\nmse = 2.031\nsamples = 106\nvalue = 4.517"] ;
1188 -> 1224 ;
1225 [label="GunsAmmo <= -0.123\nmse = 3.984\nsamples = 8\nvalue = 6.146"] ;
1224 -> 1225 ;
1226 [label="mse = 0.0\nsamples = 1\nvalue = 1.5"] ;
1225 -> 1226 ;
1227 [label="GunsAmmo <= -0.11\nmse = 1.028\nsamples = 7\nvalue = 6.81"] ;
1225 -> 1227 ;
1228 [label="HuntLic <= 0.359\nmse = 0.27\nsamples = 2\nvalue = 7.83"] ;
1227 -> 1228 ;
1229 [label="mse = 0.0\nsamples = 1\nvalue = 7.31"] ;
1228 -> 1229 ;
1230 [label="mse = -0.0\nsamples = 1\nvalue = 8.35"] ;
1228 -> 1230 ;
1231 [label="waiting period <= 0.5\nmse = 0.749\nsamples = 5\nvalue = 6.402"] ;
1227 -> 1231 ;
1232 [label="avg_own_est <= 0.452\nmse = 0.128\nsamples = 4\nvalue = 6.0"] ;
1231 -> 1232 ;
1233 [label="Suicides <= 9.675\nmse = 0.023\nsamples = 2\nvalue = 6.34"] ;
1232 -> 1233 ;
1234 [label="mse = 0.0\nsamples = 1\nvalue = 6.19"] ;
1233 -> 1234 ;
1235 [label="mse = 0.0\nsamples = 1\nvalue = 6.49"] ;
1233 -> 1235 ;
1236 [label="GunsAmmo <= -0.093\nmse = 0.002\nsamples = 2\nvalue = 5.66"] ;
1232 -> 1236 ;
1237 [label="mse = 0.0\nsamples = 1\nvalue = 5.71"] ;
1236 -> 1237 ;
1238 [label="mse = -0.0\nsamples = 1\nvalue = 5.61"] ;
1236 -> 1238 ;
1239 [label="mse = 0.0\nsamples = 1\nvalue = 8.01"] ;
1231 -> 1239 ;
1240 [label="GunsAmmo <= -0.067\nmse = 1.638\nsamples = 98\nvalue = 4.384"] ;
1224 -> 1240 ;
1241 [label="mse = 0.0\nsamples = 1\nvalue = 1.05"] ;
1240 -> 1241 ;
1242 [label="GunsAmmo <= 0.126\nmse = 1.539\nsamples = 97\nvalue = 4.419"] ;
1240 -> 1242 ;
1243 [label="HuntLic <= 0.294\nmse = 1.822\nsamples = 42\nvalue = 4.746"] ;
1242 -> 1243 ;
1244 [label="HuntLic <= 0.243\nmse = 1.321\nsamples = 9\nvalue = 5.724"] ;
1243 -> 1244 ;
1245 [label="avg_own_est <= 0.411\nmse = 0.465\nsamples = 3\nvalue = 4.443"] ;
1244 -> 1245 ;
1246 [label="avg_own_est <= 0.383\nmse = 0.112\nsamples = 2\nvalue = 4.885"] ;
1245 -> 1246 ;
1247 [label="mse = 0.0\nsamples = 1\nvalue = 4.55"] ;
1246 -> 1247 ;
1248 [label="mse = -0.0\nsamples = 1\nvalue = 5.22"] ;
1246 -> 1248 ;
1249 [label="mse = 0.0\nsamples = 1\nvalue = 3.56"] ;
1245 -> 1249 ;
1250 [label="avg_own_est <= 0.527\nmse = 0.518\nsamples = 6\nvalue = 6.365"] ;
1244 -> 1250 ;
1251 [label="avg_own_est <= 0.398\nmse = 0.032\nsamples = 4\nvalue = 5.868"] ;
1250 -> 1251 ;
1252 [label="HuntLic <= 0.264\nmse = 0.01\nsamples = 2\nvalue = 6.03"] ;
1251 -> 1252 ;
1253 [label="mse = 0.0\nsamples = 1\nvalue = 5.93"] ;
1252 -> 1253 ;
1254 [label="mse = 0.0\nsamples = 1\nvalue = 6.13"] ;
1252 -> 1254 ;
1255 [label="Suicides <= 8.855\nmse = 0.0\nsamples = 2\nvalue = 5.705"] ;
1251 -> 1255 ;
1256 [label="mse = 0.0\nsamples = 1\nvalue = 5.72"] ;
1255 -> 1256 ;
1257 [label="mse = 0.0\nsamples = 1\nvalue = 5.69"] ;
1255 -> 1257 ;
1258 [label="Implement <= 0.5\nmse = 0.005\nsamples = 2\nvalue = 7.36"] ;
1250 -> 1258 ;
1259 [label="mse = 0.0\nsamples = 1\nvalue = 7.43"] ;
1258 -> 1259 ;
1260 [label="mse = 0.0\nsamples = 1\nvalue = 7.29"] ;
1258 -> 1260 ;
1261 [label="HuntLic <= 0.38\nmse = 1.627\nsamples = 33\nvalue = 4.479"] ;
1243 -> 1261 ;
1262 [label="HuntLic <= 0.349\nmse = 1.602\nsamples = 30\nvalue = 4.605"] ;
1261 -> 1262 ;
1263 [label="avg_own_est <= 0.48\nmse = 2.022\nsamples = 16\nvalue = 4.122"] ;
1262 -> 1263 ;
1264 [label="avg_own_est <= 0.431\nmse = 2.002\nsamples = 5\nvalue = 2.958"] ;
1263 -> 1264 ;
1265 [label="GunsAmmo <= 0.053\nmse = 0.023\nsamples = 2\nvalue = 4.52"] ;
1264 -> 1265 ;
1266 [label="mse = 0.0\nsamples = 1\nvalue = 4.67"] ;
1265 -> 1266 ;
1267 [label="mse = 0.0\nsamples = 1\nvalue = 4.37"] ;
1265 -> 1267 ;
1268 [label="HuntLic <= 0.342\nmse = 0.611\nsamples = 3\nvalue = 1.917"] ;
1264 -> 1268 ;
1269 [label="avg_own_est <= 0.462\nmse = 0.366\nsamples = 2\nvalue = 2.345"] ;
1268 -> 1269 ;
1270 [label="mse = 0.0\nsamples = 1\nvalue = 2.95"] ;
1269 -> 1270 ;
1271 [label="mse = -0.0\nsamples = 1\nvalue = 1.74"] ;
1269 -> 1271 ;
1272 [label="mse = -0.0\nsamples = 1\nvalue = 1.06"] ;
1268 -> 1272 ;
1273 [label="avg_own_est <= 0.579\nmse = 1.134\nsamples = 11\nvalue = 4.652"] ;
1263 -> 1273 ;
1274 [label="GunsAmmo <= 0.025\nmse = 0.756\nsamples = 9\nvalue = 4.99"] ;
1273 -> 1274 ;
1275 [label="avg_own_est <= 0.528\nmse = 0.314\nsamples = 2\nvalue = 6.17"] ;
1274 -> 1275 ;
1276 [label="mse = 0.0\nsamples = 1\nvalue = 6.73"] ;
1275 -> 1276 ;
1277 [label="mse = 0.0\nsamples = 1\nvalue = 5.61"] ;
1275 -> 1277 ;
1278 [label="avg_own_est <= 0.523\nmse = 0.371\nsamples = 7\nvalue = 4.653"] ;
1274 -> 1278 ;
1279 [label="avg_own_est <= 0.507\nmse = 0.105\nsamples = 3\nvalue = 5.203"] ;
1278 -> 1279 ;
1280 [label="avg_own_est <= 0.496\nmse = 0.027\nsamples = 2\nvalue = 4.995"] ;
1279 -> 1280 ;
1281 [label="mse = 0.0\nsamples = 1\nvalue = 4.83"] ;
1280 -> 1281 ;
1282 [label="mse = 0.0\nsamples = 1\nvalue = 5.16"] ;
1280 -> 1282 ;
1283 [label="mse = -0.0\nsamples = 1\nvalue = 5.62"] ;
1279 -> 1283 ;
1284 [label="avg_own_est <= 0.552\nmse = 0.172\nsamples = 4\nvalue = 4.24"] ;
1278 -> 1284 ;
1285 [label="Suicides <= 9.75\nmse = 0.042\nsamples = 3\nvalue = 4.023"] ;
1284 -> 1285 ;
1286 [label="mse = 0.0\nsamples = 1\nvalue = 4.3"] ;
1285 -> 1286 ;
1287 [label="Suicides <= 10.475\nmse = 0.006\nsamples = 2\nvalue = 3.885"] ;
1285 -> 1287 ;
